{"architecture": "vae", "encoder": {"layers.0.weight": [[0.187740296125412, -0.052258994430303574, 0.24480324983596802, 0.5756511688232422, -0.08850165456533432, -0.08849544823169708, 0.5968863368034363, 0.2900630533695221, -0.17744463682174683, 0.2050684243440628, -0.1751554310321808, -0.1760292947292328, 0.09145314246416092, -0.7231519818305969, -0.651957631111145, -0.21252471208572388, -0.3828141689300537, 0.11877432465553284, -0.34320083260536194, -0.5338006019592285, 0.5539631843566895, -0.08533541858196259, 0.025523262098431587, -0.5385041832923889, -0.20575733482837677, 0.041924796998500824, -0.43503469228744507, 0.1420004963874817, -0.22702008485794067, -0.11024987697601318, -0.22742372751235962, 0.7000953555107117, -0.005101471208035946, -0.3997771441936493, 0.3108927607536316, -0.4614355266094208, 0.07894302159547806, -0.7406857013702393, -0.5020071268081665, 0.07440655678510666, 0.27911412715911865, 0.0647711232304573, -0.043710943311452866, -0.11380650103092194, -0.5588287711143494, -0.2720755338668823, -0.17410509288311005, 0.39955464005470276, 0.12987551093101501, -0.6663665175437927, 0.1224922239780426, -0.14554741978645325, -0.25585246086120605, 0.23119190335273743, 0.3896811902523041, 0.35199078917503357, -0.317194402217865, -0.11687128990888596, 0.12520581483840942, 0.3687213957309723, -0.18111084401607513, -0.0701724961400032, -0.418155312538147, -0.45212361216545105, 0.3071058988571167, 0.5126105546951294, -0.027217267081141472, 0.3792997896671295, 0.1366855651140213, -0.24383234977722168, 0.13659469783306122, 0.5813232064247131, -0.013540970161557198, 0.591379702091217, -0.9901705980300903, 0.31064996123313904, 0.032900698482990265, -0.11301415413618088, 0.03468231484293938, -0.7512304186820984, -0.0830281674861908, 0.134975865483284, 0.5585914254188538, -0.1958877295255661, -0.30558186769485474, -0.18964633345603943, 0.345989465713501, 0.12425623834133148, -0.20023053884506226, 0.193996861577034, 0.03669186308979988, 0.3661133944988251, -0.2653511166572571, -0.12384465336799622, -0.14820295572280884, -0.5531566739082336, 0.11192294210195541, 0.0986696183681488, 0.0019327049376443028, -0.08866560459136963, -0.5349598526954651, -0.15898898243904114, -0.12953391671180725, -0.3032323122024536, -0.06096027046442032, 0.15271687507629395, 0.7129112482070923, 0.06598421186208725, 0.09734489768743515, -0.02813791111111641, -0.7252273559570312, -0.010021302849054337, 0.02276488021016121, 0.9310179948806763, -0.07270561158657074, 0.1139741837978363, -0.013119815848767757, -0.44171878695487976, 0.43194642663002014, 0.28420397639274597, 0.2989819645881653, -0.3437161445617676, 0.5302064418792725, -0.5298498868942261, 0.22181113064289093, 0.8279144167900085, -0.3743875324726105, -0.21404042840003967, 0.03766467422246933, -0.19029590487480164, -0.5860956907272339, 0.025914369150996208, -0.40151306986808777, 0.1790011078119278, -0.3475096821784973, 0.5858201384544373, -0.29604190587997437, -0.12172780930995941, 0.3074806034564972, -0.4652229845523834, 0.08597177267074585, 0.49405351281166077, -0.607571542263031, 0.06978503614664078, 0.09822646528482437, 0.2955012619495392, -0.4675234258174896, -0.4990856945514679, 0.19727537035942078, 0.11224965751171112, 0.0946773961186409, 0.1309451162815094, -0.25702518224716187, 0.08778364956378937, 0.11077098548412323, -0.2699994444847107, 0.7051964998245239, 0.17909200489521027, -0.4502703845500946, 0.2481539398431778, -0.36839503049850464, 0.29749003052711487, 0.43790796399116516, -0.31018877029418945, 0.3641219437122345, 0.1560165286064148, 0.31070953607559204, 0.7169203758239746, -0.09274798631668091, -0.2848854959011078, -0.33620485663414, -0.30834731459617615, -0.029141707345843315, 0.1289433240890503, 0.10457929223775864, 0.31264588236808777, 0.004914253018796444, 0.5493842363357544, -0.10003088414669037, 1.0281273126602173, 0.23648002743721008, -0.3239751160144806, -0.40475931763648987, 0.18235743045806885, -0.08446099609136581, 0.26986682415008545, 0.17886701226234436, -0.027526741847395897, -0.3200579285621643, -0.5725584626197815, -0.1687667816877365, 0.3236883282661438, 0.08091983199119568, -0.4708450138568878, 0.06545623391866684, 0.14563627541065216, -0.3340667188167572, 0.05810263007879257, 0.02200082689523697, -0.43200215697288513, 0.1352309137582779, 0.21195663511753082, 0.40935489535331726, 0.3982997238636017, -0.5207100510597229, -0.3544645607471466, 0.19466502964496613, 0.19419284164905548, 0.1946697235107422, 1.456195592880249, 0.21577632427215576, 0.42920348048210144, 0.3605787754058838, 0.246202751994133, -0.11916057020425797, 0.28686338663101196, -0.2921004891395569, -0.089509017765522, -0.18345017731189728, 0.030945515260100365, 0.8748586773872375, -0.7057598829269409, 0.2593819797039032, -0.6095492839813232, -0.17837348580360413, 0.41158464550971985, 0.024295562878251076, -0.40734922885894775, -0.2703593969345093, 0.2568638026714325, -0.27605265378952026, 0.08181365579366684, 0.017224537208676338, -0.24628178775310516, 0.8103346824645996, 0.23959887027740479, -0.7654319405555725, 0.07047310471534729, -0.2501317858695984, 0.3221895098686218, -0.29954469203948975, -0.04336629807949066, 0.19086724519729614, 0.3272247016429901, -0.45366939902305603, -0.12642958760261536, -0.17951245605945587, -0.24693523347377777, 0.6672790050506592, 0.15306870639324188, -0.4765693247318268, 0.3469192087650299, 0.8020996451377869, 0.39023518562316895, -0.5742678642272949, -0.18302327394485474], [0.4788474142551422, -0.26747390627861023, 0.16774797439575195, 0.2927841544151306, -0.35034677386283875, -0.022498469799757004, -1.2250839471817017, -0.3871821463108063, -0.09546178579330444, -0.4716176986694336, 0.6169934868812561, -0.5405426025390625, -0.16632118821144104, 0.04941529408097267, 0.5447500944137573, -0.5427048802375793, 0.4396345615386963, 0.0038677335251122713, -0.37097540497779846, 0.17465870082378387, 0.07523749023675919, -0.2268606573343277, 0.02638270892202854, -0.14563484489917755, 0.042905524373054504, 0.2502618730068207, 0.5994580388069153, -0.4678502678871155, 0.8062108159065247, -0.7378198504447937, -0.05736937373876572, 0.22236301004886627, 0.10620494186878204, -0.23535829782485962, -0.07866282016038895, -0.18633684515953064, -0.2227589339017868, 0.32111939787864685, 0.13493916392326355, -0.26189520955085754, 0.34001678228378296, 0.11614830046892166, 0.3072330057621002, 0.23797734081745148, -0.31333065032958984, -0.2117285281419754, 0.28245043754577637, 0.23069827258586884, -0.007900060154497623, 0.04434558376669884, 0.48291194438934326, -0.22359296679496765, 0.20678336918354034, -0.07642164081335068, -0.08227576315402985, 0.41529861092567444, 0.3119780421257019, 0.307477742433548, 0.4934246242046356, 0.007938706316053867, 0.25775399804115295, -0.11726981401443481, 0.12252336740493774, -0.049189452081918716, 0.03666102886199951, 0.2249482125043869, -0.3092583417892456, 0.7908480763435364, -0.3802388310432434, -0.4589201509952545, 0.437724769115448, 0.29922038316726685, 0.23589511215686798, 0.23749227821826935, -0.004628845024853945, -0.3391302824020386, 0.02865142934024334, -0.25594305992126465, 0.3685606122016907, -0.05558246746659279, -0.3120086193084717, -0.12147243320941925, 0.1560734212398529, -0.21306785941123962, -0.31077009439468384, 0.09210510551929474, 0.09258866310119629, -0.19160650670528412, -0.17803575098514557, 0.08770663291215897, -0.5473244190216064, -0.531971275806427, -0.2715463936328888, -0.08067543804645538, 0.11751201748847961, 0.5576322078704834, 0.32416486740112305, -0.06045108288526535, -0.007187450770288706, -0.3789204955101013, -0.006997307762503624, -0.10910271108150482, 0.12197615206241608, -0.3126639127731323, 0.19629453122615814, 0.5793208479881287, -0.04110747203230858, 0.15183275938034058, 0.2608499228954315, -0.15164709091186523, 0.08469899743795395, 0.004759480245411396, 0.036918096244335175, -0.2921702265739441, 0.00926397554576397, 0.188225656747818, 0.548480749130249, 0.36257028579711914, 0.8138265013694763, -0.2900301218032837, 0.32970622181892395, 0.06929676234722137, 0.8276677131652832, -0.3055080473423004, -0.3173850178718567, -0.22654911875724792, -0.8027571439743042, -0.19871671497821808, -0.28692516684532166, 0.056843508034944534, 0.12917160987854004, 0.7091259360313416, 0.35922643542289734, -0.2180490791797638, -0.3395688235759735, 0.18592797219753265, -0.49900123476982117, 0.6922263503074646, 0.4457864761352539, -0.17733173072338104, -0.6475039720535278, 0.5117156505584717, -0.04329199343919754, 0.46785059571266174, -0.602636992931366, -0.22654245793819427, 0.0019819322042167187, 0.01775699481368065, -0.17010876536369324, 0.23541514575481415, -0.4035225808620453, -0.05381438881158829, 0.045467473566532135, 0.1944396048784256, 0.2689651548862457, -0.4250747561454773, -0.5798406600952148, 0.4829164445400238, 0.12560288608074188, -0.2829013168811798, 0.586280345916748, 0.043720901012420654, 0.445732444524765, 0.025519587099552155, 0.7788894772529602, 0.6634564995765686, -0.09409960359334946, 0.36721929907798767, 0.2439291775226593, 0.5172941088676453, -0.36470678448677063, 0.25930309295654297, 0.40004685521125793, -0.664741039276123, -0.44722968339920044, -0.7707573175430298, -0.10182621330022812, 0.27120548486709595, 0.5678375959396362, 0.028005193918943405, 0.6155588030815125, -0.5216293334960938, -0.6438180208206177, -0.02099505625665188, 0.14516308903694153, -0.012357452884316444, -0.7814196348190308, -0.03368420898914337, -0.49304312467575073, 0.25311243534088135, 0.13856111466884613, -0.35524117946624756, -0.19422343373298645, -0.4003450870513916, -0.023690471425652504, 0.3610098659992218, -0.37256941199302673, 0.19051167368888855, -0.20041854679584503, -0.2996777594089508, -0.04045367240905762, -0.3912848234176636, -0.2092597633600235, -0.45275527238845825, 0.7425963282585144, 0.013328369706869125, -0.2644713819026947, 0.08087680488824844, -0.0424560122191906, -0.08351866155862808, 0.2321331948041916, 0.28631100058555603, -0.20051059126853943, -0.21763883531093597, -0.10395976901054382, -0.8700444102287292, -0.5726884007453918, 0.5166299343109131, 0.6217393279075623, -0.09412677586078644, 0.2179180532693863, 0.11764150112867355, 1.1637076139450073, 0.42315953969955444, -0.04834830388426781, -0.3611603379249573, -0.6071796417236328, 0.07690202444791794, -0.2858737111091614, -0.5375613570213318, -0.24438157677650452, -0.40878671407699585, 0.6376795768737793, 0.3332284986972809, -0.0030133752152323723, 0.5593662858009338, 0.029242470860481262, -0.3255348205566406, 0.5756868124008179, 0.203688845038414, -0.3920421898365021, -0.07194125652313232, -0.33095258474349976, -0.5226491689682007, 0.35006222128868103, 0.7216916680335999, -0.5286088585853577, 0.2127823680639267, -0.24591977894306183, -0.18411609530448914, -0.2239038646221161, -0.32655781507492065, 0.018339451402425766, -0.31406962871551514, 0.10222306847572327, -0.018988220021128654], [-0.0903138741850853, -0.3430268168449402, -0.21799907088279724, 0.2855110466480255, 0.1893288940191269, -0.3694811463356018, 0.03754408285021782, 0.28399762511253357, -0.6309759020805359, 0.20537084341049194, -0.25044822692871094, 0.2156660258769989, -0.2884848415851593, -0.6821812987327576, -0.6151531934738159, 0.01817440241575241, 0.09816587716341019, -0.3417995572090149, 0.24136526882648468, -0.6279955506324768, -0.024975815787911415, -0.45772111415863037, -0.24637089669704437, 0.017915014177560806, -0.3252056837081909, -0.14534834027290344, 0.38034293055534363, -0.21804463863372803, 0.31586194038391113, -0.42698904871940613, 0.2002471536397934, 0.5448617339134216, -0.9341937899589539, -0.3011980950832367, 0.2181127667427063, -0.076743945479393, 0.14027994871139526, -0.22828494012355804, 0.032727863639593124, -0.05884046480059624, 0.4413801431655884, 0.09616204351186752, 0.12760181725025177, -0.15567485988140106, -0.1842978298664093, -0.1634916216135025, 0.14908888936042786, -0.1591171771287918, 0.10952460020780563, 0.7844277620315552, 0.3292541801929474, -0.12322530895471573, 0.45401617884635925, -0.1542380005121231, -0.7703386545181274, -0.38102081418037415, -0.7070928812026978, -0.13285960257053375, 0.006961492821574211, 0.6336337327957153, 0.12356693297624588, -0.08281221240758896, 0.3134858310222626, -0.8357306122779846, 0.0890539288520813, 0.29135966300964355, -0.5588530898094177, 0.4322983920574188, 0.1279396116733551, -0.15696407854557037, 0.23916906118392944, 0.8582412004470825, 0.06873898208141327, 0.0938185602426529, -0.17362210154533386, -0.32121098041534424, 0.3138374388217926, -0.32356926798820496, 0.02704949490725994, -0.18053755164146423, 0.18103735148906708, 0.1261124163866043, 0.39215323328971863, -0.19276808202266693, -0.10200313478708267, -0.369937926530838, -0.1679270714521408, 0.14260618388652802, 0.28611481189727783, -0.34854573011398315, 0.328680157661438, 0.5123829245567322, 0.15626370906829834, 0.7093621492385864, -0.29246482253074646, -0.4704352617263794, -0.6722930669784546, 0.5654516220092773, 0.24732697010040283, -0.021009031683206558, 0.10581819713115692, -0.42539486289024353, 0.9244073629379272, 0.04884101450443268, 0.04134734719991684, 0.2743139863014221, 0.18180440366268158, 0.08462020754814148, -0.2987712621688843, 0.17819829285144806, 0.7113384008407593, 0.5085209608078003, 0.6021679639816284, -0.19322136044502258, -0.37403547763824463, -0.047542985528707504, 0.021062036976218224, 0.4135655164718628, -0.6396915316581726, 0.578115701675415, -0.05972137302160263, -0.16134588420391083, -0.3825395107269287, -0.6254770159721375, 0.31112924218177795, 0.02771158702671528, -0.48755937814712524, -0.4894937574863434, -0.12691468000411987, 0.6308308243751526, -0.09811630845069885, -0.568134605884552, -0.09288214892148972, -0.10307981818914413, -1.0193272829055786, -0.020521530881524086, -0.08728504925966263, 0.2631412744522095, 0.6988397240638733, 0.425801545381546, -0.10163037478923798, -0.41822749376296997, 0.9726386070251465, 0.0223824642598629, 0.0052647776901721954, -0.009118425659835339, 0.07486899942159653, -0.05456310883164406, -0.21682386100292206, -0.20669324696063995, -0.012379572726786137, -0.20539525151252747, -0.26943036913871765, 0.04022684320807457, -0.0963723286986351, 0.5684559345245361, -1.0019724369049072, 0.41255080699920654, 0.47097593545913696, -0.7836678624153137, -0.12952373921871185, -0.14039145410060883, -0.5319893956184387, -0.29398706555366516, -0.4197582006454468, 0.6622959971427917, 0.3536531925201416, 0.4806026518344879, 0.2727664113044739, -0.42674145102500916, -0.19825002551078796, 0.18496619164943695, -0.4619208872318268, 0.26948806643486023, -0.09083446115255356, -0.14166894555091858, 0.26871761679649353, 0.16791574656963348, -0.13643237948417664, 0.4381854832172394, -0.4086035192012787, 0.23280178010463715, 0.2241712063550949, -0.11699755489826202, 0.12326669692993164, -0.47287648916244507, 0.34924939274787903, -0.06988643854856491, -0.19757072627544403, 0.396488219499588, -0.266216903924942, -0.5323483347892761, -0.5883505344390869, 0.22905023396015167, -0.48395681381225586, 0.6632498502731323, -0.7868953347206116, 0.6412002444267273, 0.07975710928440094, -0.03655412048101425, -0.20596005022525787, 0.1508592665195465, -0.014224580489099026, 0.4170089066028595, 0.04317399486899376, 0.056808724999427795, -0.1374325007200241, -0.021523423492908478, 0.11633813381195068, -0.6463828682899475, -0.5095661878585815, 0.2809274196624756, 0.06458106637001038, -0.06953916698694229, 0.006967371795326471, 0.1313735395669937, -0.2040099799633026, -0.294171541929245, 0.07402254641056061, -0.36979013681411743, 0.15430504083633423, -0.6435161232948303, 0.3889842629432678, 0.17862506210803986, 0.09677014499902725, 0.37142229080200195, 0.6294901967048645, 0.38339585065841675, -0.6957850456237793, -0.4836346209049225, -0.23615922033786774, 0.00986148975789547, 0.19565671682357788, -0.2743053734302521, 0.07059120386838913, -0.2855079174041748, -0.23113200068473816, -0.531667947769165, -0.3489493727684021, -0.5108887553215027, -0.3688454329967499, 0.3982391655445099, -0.3588390648365021, 0.9949468970298767, 0.18645663559436798, 0.06986148655414581, -0.3244287371635437, 0.2646922469139099, -0.21757064759731293, 0.04611537605524063, 0.9676210284233093, -0.03630723059177399, 0.4343844950199127, -0.2657757103443146, -0.0132244061678648, 0.6692997217178345], [-0.23697127401828766, 0.6850411891937256, 0.26750507950782776, -0.2125924527645111, 0.23902766406536102, 0.3675910234451294, 0.23502206802368164, -0.5934891700744629, -0.27483201026916504, -0.09355325251817703, -0.028133191168308258, 0.234592005610466, 0.06716466695070267, -0.504712700843811, 0.14370128512382507, 0.2307797223329544, 0.21158090233802795, 0.4084967076778412, 0.31519293785095215, 0.17355374991893768, -0.026520146057009697, -0.627784252166748, 0.1623804271221161, 0.07849856466054916, 0.10264715552330017, -0.48256561160087585, -0.40860095620155334, 0.3980543613433838, -0.014950443059206009, 0.25758305191993713, 0.01070334017276764, 0.011246763169765472, 0.3546379506587982, -0.1950465738773346, 0.03633023798465729, -0.17472364008426666, -0.16422413289546967, -0.11685607582330704, 0.08395867049694061, -0.18094997107982635, 0.4746311902999878, -0.33812978863716125, -0.07063084095716476, -0.16620272397994995, 0.5469062328338623, 0.07429072260856628, 0.390000581741333, -0.5614890456199646, 0.10093551129102707, 0.33624884486198425, 0.031100424006581306, 0.40271371603012085, -0.1955166608095169, 0.532683253288269, 0.868901789188385, -0.13714008033275604, -0.1683841198682785, 0.5493276715278625, 0.5970221757888794, -0.19762250781059265, -0.1588156819343567, -0.10650457441806793, -0.5081545114517212, -0.3472177982330322, -0.37952953577041626, -0.29020020365715027, -0.013109655119478703, 0.08852484822273254, 0.5860341191291809, -0.3773423731327057, 0.37203890085220337, -0.08088018000125885, -0.01869552582502365, 0.25505778193473816, -0.4243490397930145, 0.1445372998714447, 0.06291302293539047, 0.18612907826900482, 0.10929547250270844, 0.9280162453651428, -0.2410430610179901, -0.20069798827171326, -0.235524982213974, -0.20995061099529266, -0.24090969562530518, 0.4494059979915619, 0.5369001626968384, -0.21572181582450867, -0.3146008253097534, 0.1781783252954483, -0.20872069895267487, 0.23922574520111084, 0.0766976922750473, -0.5728974342346191, 0.5849019885063171, 0.6787779331207275, -0.23161235451698303, -0.1465374231338501, 0.10804696381092072, 0.1264127790927887, 0.24890634417533875, 0.7597858905792236, -0.0668797641992569, -0.3017280101776123, -0.5213336944580078, -0.27626559138298035, -0.01252081897109747, 0.6782791018486023, -0.19563868641853333, 0.08458389341831207, -0.006207271479070187, 0.44917044043540955, 0.9550907015800476, -0.20064952969551086, -0.18499071896076202, 0.394655704498291, 0.25773075222969055, 0.6979897618293762, 0.2207041084766388, -0.13579964637756348, 0.22324654459953308, 0.41905057430267334, 0.3101131021976471, 0.1917315572500229, 0.40316513180732727, 0.4419521987438202, 0.5224069952964783, 0.24518929421901703, -0.06316469609737396, 0.05545256286859512, 0.45601752400398254, -0.30877265334129333, 0.13934540748596191, -0.1486680954694748, 0.01086452230811119, 0.48320937156677246, 0.07222865521907806, 0.017551366239786148, -0.5139772891998291, 0.28205734491348267, 0.2439700812101364, 0.8176334500312805, -0.11632923781871796, 0.08283104002475739, 0.09425817430019379, 0.5962212681770325, -0.03601832687854767, 0.10546022653579712, 0.22976328432559967, 0.07053162157535553, -0.1687360405921936, 0.07335912436246872, 0.4057946503162384, -0.38798630237579346, 0.050257813185453415, -0.2646207809448242, 0.4516851603984833, -0.5757105350494385, -0.2112525999546051, 0.14257268607616425, 0.591712474822998, -0.02485126256942749, -0.20984569191932678, 0.7110105156898499, -0.5472978353500366, -0.8310705423355103, 0.16630983352661133, -0.18975865840911865, -0.3859897255897522, 0.2677335739135742, 0.09214800596237183, -0.21320168673992157, -0.48390957713127136, 0.3297578692436218, 0.2457529455423355, -0.03748495131731033, 0.6979631781578064, -0.4044540226459503, -0.5765942931175232, -0.26151666045188904, -0.017229894176125526, 0.0919736698269844, -0.09117866307497025, 0.13306443393230438, -0.473037451505661, 0.545691728591919, -0.03105022758245468, 0.4222981333732605, 0.12953799962997437, 0.1726364940404892, 0.21535179018974304, 0.16921792924404144, 0.24292637407779694, 0.5023724436759949, 0.07427801936864853, 0.2679782211780548, -0.0339169055223465, 0.5443131327629089, -0.2556522488594055, 0.6806914806365967, -0.015178279019892216, -0.5407821536064148, 0.04841891676187515, -0.2574133276939392, 0.31773340702056885, -0.24666868150234222, -0.16864149272441864, -0.714179277420044, -0.17095571756362915, -0.9161402583122253, -0.5986589789390564, 0.2874097228050232, 0.2970045506954193, 0.16080784797668457, -0.3654826283454895, -0.01803319714963436, -0.0013616317883133888, -0.437820702791214, 0.5682311654090881, 0.3316117823123932, -0.08351660519838333, 0.01016189157962799, 0.07876129448413849, -0.7717032432556152, -0.09342426806688309, -0.25776582956314087, -0.37857678532600403, -0.10624592751264572, 0.679461658000946, 0.2422158271074295, -0.21588537096977234, 0.21641595661640167, 0.5289066433906555, 0.34947869181632996, 0.022538160905241966, -0.24451911449432373, 0.2639036178588867, 0.14872349798679352, 0.33835121989250183, 0.2400723695755005, 0.3966936469078064, -0.20229989290237427, 0.4979281425476074, 0.07468563318252563, 0.7843748927116394, -0.26048851013183594, 0.6561326384544373, 0.07480324804782867, -0.24621286988258362, -0.18289165198802948, -0.12107989937067032, 0.16031965613365173, 0.19761323928833008, -0.21683822572231293, -0.009205170907080173, 0.8097020983695984], [0.6529499292373657, 0.16491484642028809, 0.014363965019583702, 0.04536757618188858, 0.23188799619674683, -0.3865792453289032, -0.09727919101715088, -0.6306654810905457, 0.15089215338230133, 0.24461707472801208, -0.18262732028961182, 0.5949110984802246, -0.4632958769798279, -0.5534816980361938, 0.08483481407165527, 0.3957659602165222, 0.6364648342132568, -0.17344194650650024, 0.4077030420303345, -0.014554833061993122, -0.06524698436260223, 0.333992063999176, 0.24655486643314362, -0.5958202481269836, 0.5580797791481018, 0.5216255187988281, -0.2364404797554016, 0.14959967136383057, 0.18672585487365723, 0.09852541983127594, -0.20799580216407776, -0.2538497745990753, -0.009658531285822392, 0.44324991106987, 0.2054615467786789, -0.1400790512561798, 0.2916747033596039, -1.0766478776931763, 0.43419262766838074, -0.6575499773025513, -0.1369898021221161, -0.4231954514980316, -0.4893436133861542, 0.4387512803077698, -0.17677444219589233, 0.1309661567211151, -0.017734311521053314, 0.18030448257923126, 0.02903594635426998, -0.4849254786968231, 0.376553475856781, -0.18662244081497192, -0.5883326530456543, -0.16181232035160065, 0.5672338604927063, 0.32135361433029175, -0.13177812099456787, -0.13200700283050537, -0.12156662344932556, 0.7849369645118713, 0.14435803890228271, 0.162540465593338, 0.3894105553627014, 0.0902538150548935, -0.09790872782468796, -0.07421326637268066, -0.027062732726335526, -0.014068682678043842, 0.2750181257724762, 0.019633699208498, 0.2769119143486023, -0.030508000403642654, 0.02972130849957466, -0.7552488446235657, 0.34633931517601013, 0.13096033036708832, 0.37721237540245056, -1.0946816205978394, 0.7893314361572266, -0.05275991931557655, 0.4188537299633026, -0.3930474817752838, 0.23160676658153534, -0.3981536626815796, -0.23576250672340393, 0.7234358787536621, -0.07207117229700089, 0.0821819007396698, 0.32885468006134033, 0.18735013902187347, 0.056853003799915314, 0.13794229924678802, 0.9084057211875916, -0.021777858957648277, 0.07600829750299454, 0.3971100449562073, 0.4178495407104492, 0.44865527749061584, 0.24141733348369598, -0.43201524019241333, 0.6173790693283081, -0.43327784538269043, 0.1143854558467865, -0.2850894629955292, -0.024242015555500984, 0.12426050752401352, 0.12146160751581192, 0.1594710499048233, 0.6099255084991455, 0.17141985893249512, -0.09228253364562988, 0.36439070105552673, 0.44957759976387024, -0.4639921486377716, 0.22579599916934967, 0.26501837372779846, -0.11246843636035919, 0.5199682712554932, -0.05671568214893341, 0.04746343940496445, -0.06541500240564346, 0.005888326559215784, -0.41435304284095764, -0.5442880988121033, 0.6026662588119507, -0.32012128829956055, -0.3747110962867737, -0.8139049410820007, -0.24150483310222626, -0.500080943107605, 0.6206234097480774, 0.38167497515678406, -0.26009637117385864, 0.8513407111167908, 0.3710724711418152, -0.12277472019195557, -0.9446865916252136, 0.8658949136734009, -0.5252090096473694, -0.6219022870063782, 0.38649529218673706, 0.9221397042274475, 0.5232059359550476, 0.21313761174678802, 0.22479601204395294, 0.32256075739860535, 0.2868480384349823, 0.1062803715467453, 0.03938431665301323, -0.02365797944366932, -0.28497183322906494, -0.10608521103858948, -0.6398775577545166, -0.03716888651251793, -0.37365230917930603, -0.41711756587028503, 0.06799359619617462, 0.5261273980140686, 0.34709104895591736, -0.593593418598175, -0.374044269323349, 0.35557809472084045, -0.3713453412055969, -0.08490335196256638, 0.20790015161037445, -0.3659997880458832, 0.03982819616794586, -0.5042142271995544, -0.22729560732841492, 0.12086620926856995, -0.6020950078964233, 0.1664838045835495, -0.007422390393912792, 0.20882157981395721, 0.08463158458471298, 0.5155966281890869, 0.04733041301369667, -0.16230003535747528, 0.04622410982847214, 0.20534735918045044, 0.01846737042069435, 0.015342216938734055, -0.26532793045043945, -0.2505529820919037, -0.5301349759101868, 0.6612778306007385, -0.4701361060142517, -0.26189354062080383, -0.27153241634368896, 0.3382496237754822, -0.11148049682378769, 0.4716021716594696, -0.25455552339553833, 0.10544988512992859, -0.3157314956188202, 0.8107901811599731, -0.4488700032234192, 0.11710122227668762, 0.23954515159130096, 0.1564013510942459, -0.07003214955329895, -0.04906761273741722, 0.0165591798722744, -0.05556153506040573, 0.3643120527267456, 0.8354991674423218, -0.21071209013462067, -0.5177368521690369, -0.03336747735738754, 0.975038468837738, -0.30376043915748596, 0.6195279359817505, 0.6341112852096558, -0.20923668146133423, 0.21505539119243622, 0.6154760718345642, -0.14329682290554047, -0.07694614678621292, -0.21985472738742828, -0.383542001247406, -0.24540384113788605, -0.46260592341423035, 0.012882339768111706, -0.29102253913879395, 0.08836276829242706, -0.5880732536315918, 0.12506097555160522, 0.3150443434715271, -0.75356125831604, 0.14138010144233704, 0.46401527523994446, -0.4572013318538666, 0.6321729421615601, 0.15837429463863373, -0.26646944880485535, -0.02107873000204563, 0.21102774143218994, 0.02872733771800995, 0.20363062620162964, -0.34798189997673035, 0.06401237100362778, -0.5343338251113892, -0.042039498686790466, -0.3416449725627899, -0.2780041992664337, 0.46719929575920105, 0.41247645020484924, 0.23023256659507751, -0.4128554165363312, -0.11959115415811539, 0.45850783586502075, 0.053563959896564484, 0.8766241669654846, 0.14866016805171967, 0.0725877434015274, -0.11683504283428192], [0.050473716109991074, -0.05762818083167076, 0.2676399350166321, 0.36159947514533997, -0.29707610607147217, -0.5031587481498718, -0.6940203905105591, 0.19200266897678375, -0.4170333743095398, -0.8137161731719971, 0.14686891436576843, 0.9422652721405029, -0.0022945888340473175, 0.3169197142124176, 0.030928591266274452, -0.037376776337623596, 0.3473782539367676, -0.10971346497535706, 0.10106479376554489, 0.12159033864736557, -0.25251445174217224, 0.37495675683021545, -0.06612857431173325, -0.2856448292732239, 0.20278166234493256, -0.3395889699459076, 0.010651476681232452, -0.003446656744927168, 0.4104299545288086, 0.17941907048225403, -0.009459300898015499, 0.3090866208076477, 0.5254490375518799, 0.21083247661590576, 0.003912922460585833, -0.49582749605178833, -0.40257513523101807, -0.11536409705877304, -0.23037396371364594, -0.07066851109266281, 0.021411659196019173, 0.20020504295825958, -0.02664603292942047, 0.18388034403324127, 0.02436903864145279, -0.7466561794281006, -0.3550353944301605, -0.05445997789502144, -0.4572216272354126, 0.22675174474716187, 0.5785694122314453, 0.46064868569374084, -0.08067382127046585, 0.5634415149688721, 0.05619101598858833, -0.1274065226316452, -0.23184441030025482, -0.11432279646396637, -0.14671704173088074, 0.06441127508878708, 0.06069125980138779, 0.0011512873461470008, 0.1651471108198166, 0.45002198219299316, 0.35889771580696106, -0.561238706111908, -0.965291440486908, 0.353139728307724, -0.5166316032409668, -0.08495333790779114, -0.4422611594200134, -0.6810845732688904, 0.20465368032455444, 0.28693369030952454, -0.21790045499801636, -0.9793219566345215, -0.20646099746227264, 0.1480879932641983, -0.5589760541915894, 0.06930353492498398, -0.005786579102277756, 0.21895161271095276, 0.045197129249572754, -0.3677854835987091, 0.4522615075111389, -0.05991854518651962, -0.010320145636796951, -0.35274213552474976, -0.16754494607448578, -0.3344239890575409, -0.06536746770143509, 0.646964967250824, -0.5185298919677734, -0.6098688840866089, 0.5560501217842102, -0.07911691069602966, -0.25288572907447815, 0.393047034740448, -0.22890116274356842, 0.6901667714118958, 0.2562319040298462, -0.18441317975521088, 0.8153858780860901, -0.2289387285709381, 0.28048568964004517, 0.11312196403741837, 0.4920119643211365, 0.5901957750320435, 0.012096431106328964, -0.28476518392562866, 0.17385312914848328, -0.25615233182907104, 0.7609888315200806, 0.051605504006147385, -0.13807857036590576, 0.06980259716510773, -0.50916588306427, -0.36723560094833374, 0.4537138044834137, -0.24828270077705383, -0.39569514989852905, 0.20283567905426025, 0.4481540322303772, 0.27173879742622375, 0.3764706254005432, -0.28604164719581604, -0.5373939275741577, 0.567450761795044, -0.12196151167154312, -0.09480597078800201, 0.5020102262496948, 0.21023517847061157, 0.17230938374996185, 0.8182939887046814, -0.2432270348072052, 0.3506906032562256, 0.021548936143517494, 0.10151834040880203, 0.5777067542076111, 0.19194386899471283, 0.2034567892551422, 0.40536966919898987, -0.13793917000293732, -0.3171914517879486, -0.39490076899528503, -0.7432129383087158, 0.7771732211112976, -0.4169735610485077, -0.08362600952386856, -0.10462559014558792, 0.11618880927562714, 0.30831968784332275, 0.32522842288017273, -0.22038255631923676, -0.0631660670042038, 0.10680518299341202, -0.09399641305208206, 0.6075195074081421, 0.18557108938694, 0.2777577042579651, 0.25054556131362915, 0.44353142380714417, 0.06841971725225449, -0.4901564121246338, 0.151067852973938, -0.24618975818157196, -0.1997983306646347, 0.22162476181983948, 0.4680269956588745, 0.008039900101721287, 0.11672790348529816, 0.6433767676353455, 0.0909961462020874, 0.983343780040741, 0.21374255418777466, -0.6655057668685913, 0.28473636507987976, 0.14406432211399078, 0.4874807298183441, 0.2544386386871338, -0.05233144387602806, -0.4627412259578705, -0.07900336384773254, -0.32146650552749634, -0.2194172441959381, 0.2224617302417755, 0.63116455078125, 0.14917181432247162, -0.45200130343437195, 0.16804401576519012, 0.45228418707847595, -0.2304762750864029, -0.05065372958779335, 0.005551615729928017, -0.29666367173194885, 0.24502697587013245, -0.04571410268545151, 0.1585683524608612, -0.3354405164718628, -0.16534370183944702, 0.2730344831943512, -0.14091768860816956, 0.6527310013771057, -0.15104827284812927, 0.08492284268140793, 0.35248619318008423, -0.5360918641090393, -0.6655231714248657, -0.5766438841819763, 0.47721192240715027, -0.2085827738046646, 0.9669084548950195, -0.2132655531167984, 0.06975383311510086, 0.5828627943992615, 0.7582318186759949, 0.7791751027107239, 0.4567195177078247, 0.3870592415332794, 0.22395414113998413, 0.2941928207874298, -0.20832861959934235, -0.3092501163482666, -0.0012754249619320035, -0.06432373821735382, -0.1713041067123413, 0.2632097005844116, 0.3610714375972748, 0.03341466188430786, 0.5584538578987122, -0.43151792883872986, -0.0731963962316513, -0.2709333598613739, -0.7054845094680786, -0.03125036135315895, -0.046016231179237366, 0.572030246257782, 0.2384244054555893, -0.3871062397956848, 0.7007811069488525, 0.4615073502063751, 0.22001224756240845, -0.08560294657945633, -0.36263394355773926, -0.1406809389591217, 0.4115082919597626, 0.7123066782951355, 0.583291232585907, -0.1847677081823349, -0.4231756031513214, 0.05324999615550041, -0.6684072613716125, 0.12214591354131699, -0.05578853189945221, -0.17614524066448212, -0.6027411222457886], [0.19412259757518768, -0.20134198665618896, -0.44218701124191284, -1.0856131315231323, -0.010399656370282173, 0.6698481440544128, 0.6278969645500183, -0.17276614904403687, -0.22761476039886475, 0.17718002200126648, -0.377354234457016, 0.11406661570072174, 0.28955113887786865, 0.4637371599674225, -0.03785468265414238, -0.07698144018650055, -0.3318462371826172, -0.31253141164779663, -0.08560097217559814, 0.1388511061668396, 0.3453025221824646, -0.3035731017589569, 0.564183235168457, -0.10247509181499481, -0.0080760782584548, -0.28241947293281555, -0.9162766933441162, 0.3341377377510071, 0.27850082516670227, -0.10633182525634766, 0.025320110842585564, 0.19500669836997986, -0.5905868411064148, -0.19996312260627747, 0.3002038300037384, -0.4740768373012543, 0.11095447093248367, -0.5127397179603577, 0.1762939691543579, -0.013471214100718498, -0.6104624271392822, 0.4402301013469696, -0.27764952182769775, -0.30624663829803467, 0.07580803334712982, 0.43414410948753357, -0.383944571018219, 0.02331279218196869, 0.162077397108078, 0.26196929812431335, 0.0666886419057846, -0.1387234777212143, -0.31279969215393066, 0.03255932778120041, -0.40523046255111694, -1.1041667461395264, 0.16500408947467804, 0.34165525436401367, -0.8931044936180115, -0.38164234161376953, 0.23401831090450287, 0.7776601910591125, 0.00785928312689066, -0.27515923976898193, -0.0691283568739891, 0.5196544528007507, -0.2441515177488327, -0.3020661771297455, -0.18245990574359894, -0.36032435297966003, 0.04636502265930176, 0.61407071352005, 0.12211249023675919, -0.09538065642118454, -0.11029428988695145, -0.5908305644989014, 0.3337841331958771, -0.02941969595849514, -0.06821499764919281, 1.2068811655044556, 0.11291798204183578, -0.28415030241012573, -0.16114802658557892, 0.43407168984413147, 0.04281219094991684, -0.5436179637908936, 0.3474358916282654, -0.2525347173213959, 0.7080399990081787, 0.4082197844982147, -0.16907177865505219, 0.48417866230010986, 0.02564697153866291, 0.3223181664943695, 0.1832117885351181, -0.3198927342891693, -0.24323897063732147, 0.38928860425949097, -0.12653318047523499, -0.15256477892398834, -0.3610024154186249, 0.1601053923368454, 0.7795611619949341, -0.40348953008651733, 0.009154094383120537, 0.5337691903114319, -0.03010161593556404, 0.17098046839237213, -0.40154701471328735, 0.1618848592042923, -0.07073388248682022, 0.3725709319114685, 0.4487897455692291, 0.9787630438804626, 0.21908074617385864, 0.12313943356275558, 0.07347036153078079, -0.13348431885242462, 0.12793487310409546, -0.11165124177932739, 0.0636722669005394, 0.49800506234169006, -0.38043734431266785, 0.4308336079120636, 0.49782270193099976, -0.04462570697069168, -0.8019857406616211, -0.2297351211309433, 0.4902178645133972, -0.00864331517368555, -0.3777007460594177, -0.19078698754310608, 0.3177244961261749, 0.20664586126804352, -0.09030784666538239, -0.13864660263061523, -0.14807066321372986, -0.34863826632499695, 0.6105546355247498, -0.1218256875872612, 0.46004268527030945, 0.575003445148468, 0.37732604146003723, -0.16313713788986206, 0.1525956243276596, -0.009145079180598259, -0.34156718850135803, 0.12259628623723984, -0.4456351399421692, 0.44890061020851135, -0.175608828663826, 0.07603120058774948, 0.10707274824380875, -0.09785687923431396, 0.221749410033226, -0.17949670553207397, 0.32931941747665405, -0.5087324976921082, 0.04776699095964432, 0.7328462600708008, -0.37808969616889954, -0.25616350769996643, 0.19423891603946686, 0.06787553429603577, 0.1325257271528244, 0.1848953515291214, 0.23990216851234436, 0.41942712664604187, 0.15489690005779266, -0.09118682146072388, 0.2542089521884918, 0.7180878520011902, -0.05013084411621094, -0.3683374524116516, 0.4184371531009674, -0.04549980163574219, -0.8211919069290161, 0.3202952742576599, -0.20233502984046936, -0.03421836346387863, 0.12547677755355835, 0.072002112865448, 0.2681475877761841, -0.16459837555885315, 0.19393576681613922, -0.09809942543506622, 0.2792441248893738, 0.2325870394706726, -0.353562593460083, 0.4104626476764679, -0.20257514715194702, 0.30541715025901794, 0.1388215571641922, 0.6947681307792664, -0.08446220308542252, -0.13202933967113495, -0.007339921314269304, -0.11459118872880936, 0.30234962701797485, -0.6109079718589783, -0.39825451374053955, -0.4035915732383728, 0.3591825067996979, 0.6465510725975037, -0.03947809338569641, -0.0638086125254631, 0.026477228850126266, 0.4391487240791321, -0.3505065441131592, 0.09009500592947006, 0.3685900568962097, 0.18939580023288727, 0.07165511697530746, 0.378359854221344, -1.0217257738113403, 0.2562128007411957, -0.24721737205982208, -0.6919142007827759, 0.19321642816066742, 0.5191941261291504, -0.05195065587759018, 0.3601527214050293, 0.6093838810920715, 0.49699094891548157, 0.6198483109474182, 0.28049781918525696, 0.028511235490441322, -0.6054861545562744, -0.09300287812948227, -0.31871724128723145, 0.8205392360687256, -0.06647858768701553, 0.04656704142689705, 0.20844188332557678, 0.016480175778269768, 0.640669047832489, -0.23533934354782104, 0.07355470210313797, -0.2806274890899658, -0.49892160296440125, -0.23122698068618774, -0.01399859320372343, -0.1622609943151474, -0.261710524559021, -0.5315380096435547, -0.031410954892635345, -0.5687308311462402, 0.28727415204048157, 0.0311592984944582, -0.5509026646614075, -0.11687004566192627, -0.2842884063720703, 0.12063662707805634, 0.5066426396369934, -0.7087485790252686, 0.04347577318549156], [-0.060524508357048035, 0.25374269485473633, 0.08058074861764908, -0.2842176854610443, -0.12059105187654495, -0.30086949467658997, 0.4066924750804901, 0.008055046200752258, 0.7185825109481812, -0.022927632555365562, -0.26775258779525757, -0.5721302628517151, -0.6815227270126343, -0.5987471342086792, 0.10096438229084015, 0.19227997958660126, -0.5976338982582092, 0.3382926881313324, -0.1825799196958542, 0.055482544004917145, 0.6093621253967285, 0.33897340297698975, -0.10149504244327545, -0.3368389904499054, -0.8133097887039185, -0.27181440591812134, -0.07979972660541534, -0.3731187880039215, -0.04961046949028969, 0.029047280550003052, -0.084987573325634, -0.2456778883934021, 0.06374547630548477, 0.16703785955905914, -0.4121321141719818, 0.5332823395729065, -0.03726281225681305, 0.007124487776309252, 0.267679899930954, 0.08814740926027298, 0.360251784324646, 0.10852273553609848, -0.23147957026958466, 0.13663548231124878, -0.43228787183761597, 0.04103171080350876, -0.012559755705296993, -0.07866077870130539, -0.048582613468170166, -0.7112720608711243, -0.20739851891994476, 0.0350920744240284, 0.06042003631591797, -0.38842469453811646, 0.4783926010131836, -0.3273833096027374, 0.3664203882217407, 0.16146428883075714, -0.24425096809864044, 0.6710044741630554, -0.45115232467651367, 0.34740760922431946, 0.37818455696105957, -0.25347059965133667, 0.5263023972511292, -0.09450870007276535, 0.10911593586206436, 0.09839240461587906, -0.05076393112540245, 0.30645671486854553, 0.2999105453491211, -0.6608829498291016, 0.4929942786693573, -0.6283628940582275, 0.3902657926082611, 0.42585450410842896, -0.4123465418815613, -0.1552731990814209, -0.41791707277297974, -0.08123251050710678, -0.1164260134100914, 0.2946839928627014, 0.4952501654624939, 0.5275188684463501, -0.21247954666614532, -0.07907843589782715, -0.636279821395874, -0.30459025502204895, 0.36467963457107544, 0.6106328964233398, -0.46654000878334045, -0.2239304482936859, -0.009980438277125359, 0.10589096695184708, -0.30600136518478394, 0.1602800041437149, -0.17909443378448486, -0.005462444853037596, 0.20647603273391724, 0.002427389845252037, -0.16493836045265198, -0.04142861068248749, -0.03339805826544762, -0.13985101878643036, -0.09781571477651596, 0.6042318344116211, 0.21200762689113617, -0.11168105900287628, 0.26342400908470154, -0.12617190182209015, 0.44339942932128906, 0.13971161842346191, -0.040556397289037704, 0.16922108829021454, -0.59373539686203, -0.4258780777454376, -0.4512612223625183, 0.054027412086725235, 0.6548291444778442, 0.843352198600769, 0.24116064608097076, 0.18930141627788544, -0.6807358264923096, -0.20511141419410706, -0.2977542579174042, -0.23465833067893982, -0.0635523870587349, -0.17843346297740936, -0.748104989528656, 0.28268349170684814, -0.4054587483406067, 0.09042681753635406, 0.7839295864105225, -0.3474947214126587, -0.956358790397644, -0.10809943825006485, 0.416123628616333, 0.7401857376098633, -0.464726060628891, 0.1877346634864807, -0.17587082087993622, -0.04004471376538277, 0.9994678497314453, -0.5680693984031677, 0.09590457379817963, 0.1767714023590088, 0.41038864850997925, 0.03703415021300316, 0.11643216013908386, -0.14802923798561096, 0.1017204225063324, -0.1297144889831543, 0.2349320948123932, -0.13969957828521729, 0.14253054559230804, -0.011060304008424282, 0.42560699582099915, -0.019425000995397568, -0.6701433062553406, 0.47696149349212646, -0.3423346281051636, -0.24710044264793396, -0.2251388132572174, 0.5194887518882751, -0.8072089552879333, 1.185957431793213, 0.3991519510746002, 0.08437637984752655, -0.02074798196554184, 0.1079292967915535, 0.1969657689332962, 0.24386857450008392, 0.2099987417459488, 0.03385831415653229, -0.0745869129896164, -0.057175926864147186, -0.07366840541362762, 0.42852482199668884, 0.22434335947036743, -1.1113624572753906, 0.24790719151496887, 0.07360336184501648, -0.007071245461702347, -0.14684617519378662, 0.4248746633529663, 0.3581313490867615, -0.2921203076839447, 0.15385130047798157, -0.3672517240047455, -0.5214466452598572, -0.23687684535980225, 0.3259540796279907, 0.360247403383255, 0.193928062915802, 0.27406045794487, 0.19509705901145935, -0.24245725572109222, 0.1632513701915741, 0.3025263547897339, 0.28509533405303955, 0.4493670165538788, 0.2677136957645416, 0.13283494114875793, 0.4044787585735321, -0.01002409402281046, -0.33331727981567383, -0.06163351982831955, -0.2815467417240143, -0.25519341230392456, -0.05462292209267616, -0.2995065748691559, -0.11639852076768875, -0.7157190442085266, 0.08061744272708893, 0.0004556268686428666, -0.30883046984672546, 0.2491714358329773, 0.3543682098388672, -0.6076005101203918, -0.2882828712463379, -0.2907084822654724, -0.35524997115135193, 0.31351202726364136, -0.0732593908905983, -0.09997721016407013, -0.7573887705802917, 0.24016544222831726, -0.4683956503868103, 0.022652404382824898, 0.10483862459659576, 0.5142806172370911, -0.49468761682510376, -1.1412683725357056, 0.06948859989643097, 0.6805292367935181, 0.4682776927947998, 0.07924380898475647, -0.18582101166248322, 0.3050636649131775, -0.3679658770561218, 0.18004631996154785, 0.19104976952075958, 0.4007216691970825, 1.0430535078048706, 0.1483192890882492, -0.19237016141414642, -0.009666181169450283, -0.668647825717926, -0.2625768780708313, -0.15469421446323395, -0.19808679819107056, 0.0575847290456295, -0.3108455240726471, 0.42370977997779846, 7.826318324077874e-05, -0.0035151909105479717], [-0.12393255531787872, 0.058656565845012665, 0.31185781955718994, -0.32774442434310913, -0.2487446516752243, -0.11479765176773071, -0.5086913704872131, -0.30965036153793335, -0.17999456822872162, 0.33048805594444275, 0.09923885762691498, 0.07317011058330536, 0.3216091990470886, -0.05192165449261665, 0.14758184552192688, -0.03901415690779686, 0.10029754042625427, -0.2202620655298233, -0.9217862486839294, -0.050752751529216766, 0.5377482771873474, 0.3500765264034271, 0.36488595604896545, 0.46721351146698, 0.03350941836833954, 0.07457832992076874, -0.23345047235488892, -0.11946430802345276, 0.2327396124601364, 0.4550255537033081, -0.05270573869347572, -0.17015555500984192, 0.00019954968593083322, 0.22723479568958282, -0.5457258224487305, -0.867874801158905, -0.208083376288414, -0.46138593554496765, -0.19205893576145172, -0.05585571005940437, -0.17131179571151733, 0.5489811301231384, 0.12349791079759598, 0.11356863379478455, 0.23517219722270966, -0.43043845891952515, 0.39274734258651733, -0.028636207804083824, 0.25341784954071045, -0.4051239490509033, -0.5872656106948853, 0.30913323163986206, 0.14226943254470825, -0.34094342589378357, -0.3287017345428467, 0.4253743588924408, -0.4495554268360138, 0.6208720207214355, -0.34040263295173645, 0.24128946661949158, -0.12420611083507538, 0.22798341512680054, -0.2056557685136795, -0.06152993440628052, 0.015465994365513325, -0.3787912428379059, 0.2800052762031555, -0.193976491689682, -0.08640264719724655, -0.37582874298095703, -0.968471109867096, -0.07220170646905899, 0.9118829369544983, 0.29655253887176514, -0.007279739249497652, -0.09936339408159256, 0.008491309359669685, 0.20679159462451935, -0.4463053047657013, 0.421174019575119, 0.27038872241973877, 0.27144870162010193, 0.16572825610637665, 0.007414399646222591, 0.25431764125823975, 0.22368471324443817, -0.13381481170654297, -0.21680109202861786, 0.03849806264042854, 0.5854746103286743, -0.4683384597301483, -0.5546724200248718, 0.062273744493722916, 0.019233742728829384, 0.06551699340343475, 0.09220564365386963, -0.08436252176761627, 0.5631154775619507, -0.6050848364830017, -0.31314244866371155, -0.03902662917971611, -0.6210669875144958, -0.06646671891212463, 0.6279767155647278, 0.007894350215792656, 0.08719674497842789, -0.4762974977493286, -0.2329627126455307, -0.14181090891361237, -0.12008501589298248, 0.48441582918167114, 0.21078740060329437, -0.4200916290283203, 0.09317004680633545, 0.18831011652946472, 0.4309358298778534, 0.5973882079124451, -0.38366955518722534, -0.30647534132003784, -0.4753197431564331, -0.08845119178295135, 0.1762668937444687, 0.3731773793697357, -0.028706789016723633, -0.12089099735021591, 0.057359129190444946, -0.31565433740615845, 0.7897713780403137, -0.6076387763023376, 0.06982537358999252, 0.7648512721061707, 0.002570099662989378, -0.07182800024747849, -0.13510167598724365, -0.06818164885044098, 0.5188879370689392, -0.8360052108764648, 0.579583466053009, -0.5382052063941956, -0.10078510642051697, -0.16223913431167603, 0.22245222330093384, -0.6040342450141907, 0.17468485236167908, 0.7651171088218689, -0.5152313709259033, 0.07170218974351883, -0.25020575523376465, 0.16097024083137512, 0.007237179670482874, -0.2424592673778534, 0.18439839780330658, 0.6819794774055481, -0.07215484976768494, 0.2720429301261902, -0.4888112246990204, -0.36149898171424866, 0.1785527914762497, 0.5609431266784668, 0.13440921902656555, -0.11832481622695923, -0.0002678235759958625, -0.4726096987724304, 0.2284853160381317, 0.3334905505180359, -0.17087408900260925, -0.17765922844409943, 0.10049252212047577, -0.16506454348564148, -0.024995779618620872, 0.793620228767395, -0.09336693584918976, -0.13543984293937683, -0.2447478026151657, 0.281278133392334, -0.06849630177021027, -0.24543993175029755, 0.49940598011016846, 0.536559522151947, -0.22693876922130585, -0.7054857611656189, 0.3808043897151947, -0.2587657570838928, 0.2988283932209015, -0.7446292638778687, 0.3373700678348541, -0.45777997374534607, 0.27620288729667664, 0.005394712556153536, -0.3605552017688751, -0.15384526550769806, 0.2594040036201477, 0.04002434015274048, 0.22088734805583954, 0.7470242977142334, -0.5912277698516846, 0.6112489104270935, 0.03944283723831177, -0.33970844745635986, -0.5028113126754761, -0.07148078829050064, 0.34835100173950195, -0.04820903763175011, 0.5711628794670105, -0.5484928488731384, -0.004569192882627249, -0.47336024045944214, 0.13743993639945984, 0.33521193265914917, -0.15903301537036896, -0.9843003153800964, 0.07519533485174179, 0.16507165133953094, 0.1528090536594391, 0.467081755399704, -0.4048202335834503, 0.2570975124835968, 0.4507254660129547, -0.6722429394721985, 0.12081703543663025, -0.19056206941604614, -0.030812673270702362, 0.13140936195850372, -0.18415509164333344, -0.2553936541080475, 0.012908400036394596, -0.41094034910202026, -0.410403311252594, 0.2567789554595947, -0.4342033267021179, 0.2518424391746521, 0.17484307289123535, -0.6522936224937439, -0.25609537959098816, 0.45133092999458313, -0.3708457052707672, -0.17552831768989563, 0.17464260756969452, 0.29609379172325134, -0.09507276117801666, -0.22583763301372528, 0.5376052856445312, 0.6572422981262207, 0.3699735701084137, 0.03224722668528557, -0.3054957389831543, -0.31387847661972046, 0.19749176502227783, 0.1581396609544754, 0.5297544598579407, 0.24584703147411346, -0.5681109428405762, 0.39759883284568787, -0.3772314488887787, -0.14512750506401062, 0.09456679224967957], [0.7542914152145386, 1.1754387617111206, 0.229319766163826, -0.06924181431531906, 0.20202414691448212, 0.3355022072792053, -0.12120097130537033, 0.6785261034965515, 0.08695857226848602, 0.18812920153141022, 0.2516957223415375, 0.15934476256370544, 0.317089706659317, -0.23329977691173553, -0.21101823449134827, -0.4158192276954651, 0.16611585021018982, 0.2944103181362152, 0.17302188277244568, 0.6328986287117004, -0.0021150961983948946, 0.2527605891227722, -0.41262415051460266, -0.14630994200706482, 0.2628885507583618, 0.3209304213523865, -0.11110906302928925, -0.02706197276711464, -0.573702335357666, -0.134944349527359, 0.33653318881988525, 0.21740706264972687, 0.18923385441303253, 0.01881268620491028, 0.0026696231216192245, -0.24957792460918427, 0.2641323208808899, 0.159112811088562, 0.1859656423330307, -0.198822483420372, -0.8138871192932129, 0.4146847426891327, -0.1809835433959961, -0.32609859108924866, 0.2621103823184967, -0.14816685020923615, 0.4006182849407196, 0.23320633172988892, 0.2583649158477783, -0.5162827372550964, 0.458071768283844, 0.09874341636896133, -0.13957363367080688, 0.054195746779441833, -0.671353816986084, 0.1544562429189682, -0.38906586170196533, -0.5112612843513489, -0.5753976702690125, 0.4205566644668579, -0.2378392070531845, 0.5796945691108704, -0.2025139182806015, -0.6453206539154053, -0.4220065772533417, 0.467092901468277, -0.05892397090792656, -0.20723311603069305, 0.06048120558261871, 0.18965604901313782, 0.42233705520629883, 0.5474812388420105, -0.1359797716140747, -0.5011988878250122, -0.15627513825893402, 0.0983767881989479, -0.36426663398742676, -0.36176905035972595, 0.12993960082530975, -0.018388859927654266, 0.012396099045872688, -0.2866842746734619, -0.08708328753709793, -0.34932729601860046, 0.3364633619785309, 0.3912874758243561, -0.6977934241294861, -0.35132208466529846, -0.5656349062919617, -0.24568594992160797, -0.031536586582660675, -0.5479143857955933, -0.34843024611473083, -0.3794602155685425, 0.07833968847990036, 0.026209695264697075, -0.27279114723205566, 0.06683200597763062, -0.20662565529346466, -0.10267598181962967, 0.6325054168701172, 0.5066466331481934, -0.49119552969932556, 0.31360936164855957, 0.3066790699958801, -0.43400272727012634, 0.3094688653945923, 0.5812836289405823, -0.424282044172287, -0.34678345918655396, 0.3846398890018463, 0.10261557996273041, 0.208438441157341, 0.1287306249141693, 0.14766918122768402, -0.5013593435287476, 0.3958488702774048, 0.44206345081329346, -0.08670154958963394, -0.016432741656899452, -0.5787042379379272, 0.19437003135681152, 0.21621738374233246, -0.02350599505007267, 0.42496562004089355, -0.12626932561397552, 0.2134009748697281, -0.38539689779281616, -0.008901876397430897, -0.06589971482753754, 0.08515839278697968, -0.1396680474281311, -0.04969197139143944, 0.31221649050712585, -0.16508136689662933, -0.6072290539741516, 0.6612805724143982, 0.5221405625343323, -0.48842939734458923, 0.2606850564479828, -0.190106600522995, 0.0995888039469719, 0.11120627075433731, -0.08859781920909882, -0.296235591173172, -0.26099997758865356, -0.3462879955768585, -0.31439924240112305, -0.025391006842255592, -0.2705318331718445, 0.2577914595603943, 0.5621262192726135, -0.2192395180463791, 0.09048639237880707, 0.18886321783065796, 0.17840008437633514, 0.02870839275419712, 0.28070756793022156, 0.18227297067642212, -0.46779242157936096, 0.3285101056098938, 0.3353644013404846, -0.2884950339794159, 0.014339153654873371, 0.2582740783691406, -0.0791131854057312, 0.4055475890636444, 0.8934597969055176, -0.2970747947692871, -0.5219857692718506, 0.11483263224363327, 0.272724986076355, -0.08725928515195847, 0.5492808818817139, -0.5059454441070557, 0.26189863681793213, -0.22899386286735535, 0.6498637795448303, 0.7531000375747681, -0.2897689640522003, -0.2077130675315857, 0.32489368319511414, -0.146321639418602, -0.017163826152682304, 0.009595921263098717, -0.7255682349205017, -0.0052301762625575066, -0.2606925964355469, -0.18638290464878082, 0.5456416010856628, -0.4749149680137634, 0.3073626756668091, -0.10543807595968246, -0.10573940724134445, 0.2987324893474579, 0.12852731347084045, 0.21567143499851227, 0.3659394085407257, -0.1252228021621704, -0.23140373826026917, -0.41014835238456726, -0.3119758665561676, 1.1146528720855713, 0.4704446494579315, -0.5106580853462219, -0.4998421370983124, 0.18212825059890747, 0.20684665441513062, 0.20745858550071716, -0.09636422991752625, -0.047417253255844116, 0.1239268109202385, 0.03246450424194336, -0.8388167023658752, -0.08685609698295593, -0.32180139422416687, 0.06622368842363358, 1.128321886062622, 0.13889501988887787, -0.11850308626890182, 0.34840822219848633, 0.18243888020515442, 0.1587807983160019, 0.22936797142028809, 0.7773004174232483, -0.42743566632270813, 0.1790160983800888, -0.35013914108276367, 0.20996405184268951, -0.34723085165023804, -0.15774983167648315, -0.1115335002541542, 0.3688240647315979, 0.34714314341545105, -0.47083690762519836, 0.02076314203441143, -0.2681959867477417, -0.4756701588630676, -0.08202473819255829, -0.11659553647041321, 0.9172126054763794, 0.16364343464374542, -0.5206905007362366, -0.21346451342105865, 0.3860465884208679, 0.7893571853637695, -0.5994453430175781, -0.7105446457862854, 0.7071583867073059, 0.14726032316684723, -0.3281837999820709, 0.20207080245018005, -0.9962189793586731, 0.0012758215889334679, 0.1239047572016716, 0.3493412733078003], [-0.38321664929389954, 0.03238670155405998, -0.3497776389122009, 0.09652598947286606, -0.33840909600257874, -0.15424761176109314, -0.37638282775878906, 0.2461063712835312, 0.32446402311325073, -0.08867824077606201, 0.01445260364562273, -0.5475161075592041, -0.11326712369918823, -0.01897556148469448, 0.9905666708946228, -0.4202840328216553, 0.5534069538116455, 0.37677720189094543, 0.10607059299945831, 0.6646960377693176, 0.14064264297485352, 0.14708834886550903, -0.020077720284461975, 0.4624655544757843, 0.41442641615867615, -0.23648378252983093, -0.49862855672836304, -0.07671947032213211, -0.30238616466522217, -0.024010032415390015, 0.46770766377449036, -0.1728437840938568, -0.016185717657208443, 0.021930532529950142, 0.3206767439842224, -0.8492443561553955, -0.22931115329265594, 0.0798577293753624, 0.45358720421791077, -0.18592165410518646, -0.7092702388763428, 0.23422890901565552, -0.24014441668987274, -0.44965171813964844, -0.23598037660121918, -0.06974402815103531, -0.22857199609279633, -0.8336256146430969, 0.33905914425849915, 0.4818574786186218, 0.2462521642446518, -0.4300047755241394, -0.07615663856267929, -0.0024648255202919245, 0.22632300853729248, 0.2526089549064636, -0.27749159932136536, 0.030991407111287117, 0.17283575236797333, 0.5502490997314453, 0.2662784457206726, 0.29823538661003113, 0.031683485954999924, 0.5331034660339355, 0.15487578511238098, -0.32546064257621765, 0.5304239988327026, 0.26378265023231506, -0.16745489835739136, -0.1812313050031662, 0.11209502071142197, 0.17506739497184753, 0.0745694637298584, 0.11766362190246582, 0.642523467540741, 0.40500524640083313, 0.07205347716808319, 0.3557819724082947, -0.3902573585510254, 0.15040229260921478, 0.6838535070419312, -0.08241359889507294, -0.3203755021095276, -0.24646642804145813, -0.41184258460998535, -0.29661211371421814, -0.1400388926267624, -0.5312544107437134, 0.005903175566345453, 0.34102872014045715, -0.34309959411621094, 0.5742353200912476, 0.19306126236915588, 0.38952285051345825, -0.2486380934715271, 0.3229801654815674, -0.4127122163772583, 0.3364819288253784, 0.0649491623044014, 0.20910930633544922, -0.4443329870700836, -0.3383046090602875, 0.2257310450077057, -0.35844185948371887, 0.17507551610469818, -0.5167295336723328, 0.3205797076225281, -0.46585002541542053, 0.20874975621700287, 0.23646625876426697, -0.26335498690605164, 0.21998536586761475, 0.09843792021274567, -0.20366308093070984, -0.38119783997535706, -0.7418028116226196, 0.13215529918670654, -0.5914398431777954, 0.036036718636751175, -0.09957406669855118, 0.2566918432712555, -0.11416246742010117, -0.12451955676078796, 0.27662113308906555, 0.12664003670215607, 0.11949571967124939, 0.1773664802312851, -0.5803917050361633, 0.28603923320770264, 0.23149144649505615, -0.3842701017856598, -0.09225374460220337, -0.014856758527457714, -0.050835005939006805, 0.12618720531463623, 0.5410057902336121, 0.4088693857192993, -0.49597224593162537, 0.23512035608291626, 0.5022895932197571, 0.14619988203048706, 0.4123518466949463, 0.7605667114257812, 0.3869258463382721, 0.0942297950387001, 0.39500632882118225, 0.054762452840805054, 0.009034501388669014, -0.13282209634780884, 0.5909147262573242, -0.30933696031570435, 0.5791805386543274, 0.18893088400363922, -0.5288880467414856, 0.13895836472511292, -0.7937353849411011, 0.23641981184482574, 0.3345860540866852, -0.22388949990272522, 0.04669664055109024, 0.7386021018028259, -0.19115428626537323, -0.40022945404052734, 0.5600161552429199, 0.7417882084846497, 0.0013968326384201646, 0.3822970986366272, 0.5070302486419678, -0.2806326746940613, -0.18342836201190948, 0.46522682905197144, 0.6368755102157593, 0.21274897456169128, -0.33253857493400574, 0.7510384917259216, -0.20068813860416412, -0.12667018175125122, 0.12939153611660004, 0.5874174237251282, 0.3227725923061371, 0.1568044275045395, 0.17510659992694855, 0.016446998342871666, 0.2109569013118744, -0.9560838341712952, -0.11210708320140839, 0.09121111780405045, -0.43504244089126587, 0.14601649343967438, -0.0772828608751297, 0.6635074615478516, 0.5945455431938171, -0.17605794966220856, -0.05701129510998726, -0.027949552983045578, -0.1707112342119217, 0.07371251285076141, -0.2866036891937256, -0.42733243107795715, 0.2353627234697342, 0.23793981969356537, -0.3040027916431427, 0.3384125530719757, -0.23871394991874695, 0.09568746387958527, 0.31006088852882385, -0.012704355642199516, 0.17187590897083282, -0.19519205391407013, -0.07425738871097565, -0.07780755311250687, -0.2821801006793976, -0.0668143555521965, -0.5853226780891418, -0.1856386661529541, -0.10767281800508499, -0.09682684391736984, -0.09127745777368546, -0.023344673216342926, 0.18121185898780823, 0.3305363953113556, -0.24558816850185394, -0.4547671675682068, -0.3938557803630829, -0.18414539098739624, -0.1330137550830841, -0.291031152009964, -0.4898860454559326, -0.1723974645137787, 0.06857281923294067, 0.2248999923467636, -0.2106861174106598, -0.15609849989414215, -0.35025903582572937, -0.011882889084517956, -0.32067587971687317, 0.21662195026874542, -0.6749941110610962, -0.1359272450208664, 0.11380787938833237, 0.06948291510343552, 1.0178710222244263, 0.13221198320388794, -0.3794969618320465, -0.03608209267258644, -0.6713579893112183, -0.030463842675089836, -0.3148655891418457, 0.3459849953651428, -0.20770670473575592, -0.044133368879556656, -0.24021828174591064, 0.6572240591049194, -0.12141834944486618, 0.6926414370536804, 0.30772045254707336], [0.18220409750938416, 0.13936802744865417, 0.14884138107299805, -0.7285917401313782, -0.10540801286697388, 0.31943967938423157, -0.01848139800131321, -0.5311118364334106, -0.01980702020227909, 0.6440913677215576, 0.4712807834148407, -0.023435313254594803, 0.3596140146255493, -0.13852663338184357, -0.6440029144287109, -0.34941530227661133, 0.5907164216041565, -0.10355965048074722, -0.09199050068855286, -0.11332818865776062, 0.7196959853172302, 0.6145547032356262, 0.838620126247406, -0.060113437473773956, 0.11173555254936218, -0.5732370018959045, 0.5582287311553955, -0.441379189491272, 0.08193346112966537, -0.4147413671016693, -0.2225707471370697, -0.3164554536342621, -0.2297552525997162, -0.20376922190189362, -0.20722612738609314, 0.31497061252593994, -0.4175988733768463, 0.0833568274974823, 0.4603452980518341, -0.1939699947834015, -0.2713478207588196, -0.0871301218867302, 0.4458942115306854, 0.07336578518152237, -0.20078012347221375, 0.1828881800174713, -0.41662725806236267, 0.25752967596054077, 0.1544390469789505, -0.11634066700935364, -0.3169556260108948, -0.3351338803768158, 0.20214195549488068, 0.464510977268219, -0.24087968468666077, 0.1732538938522339, -0.7888220548629761, -0.2209647297859192, -0.011739172972738743, -0.343828022480011, -0.3539661467075348, -0.25239694118499756, 0.11043847352266312, -0.07080371677875519, -0.8459718823432922, -0.8015493154525757, -0.22937346994876862, 0.17298926413059235, -1.0384591817855835, -0.18888024985790253, -0.19890299439430237, 0.5247423648834229, -0.14552456140518188, 0.1447562277317047, 0.053390178829431534, -0.8052784204483032, 0.29035502672195435, 0.08141222596168518, 0.19210748374462128, 1.4839783906936646, -0.7877206206321716, 0.6518740653991699, -0.10864494740962982, 0.10860011726617813, -0.017202012240886688, -0.16034626960754395, -0.2153766006231308, 0.12454259395599365, -0.5734377503395081, 0.28369227051734924, -0.1573067009449005, -0.42712604999542236, -0.17008887231349945, 0.4751577377319336, -0.20233763754367828, 0.13548272848129272, -0.27627551555633545, 0.2864675223827362, 0.2590975761413574, 0.6987084746360779, -0.06635693460702896, 0.252727746963501, 0.03706604614853859, 0.4897935092449188, -0.2716931104660034, 0.28158554434776306, -0.07358866184949875, -0.024260850623250008, 0.03467917814850807, 0.09533790498971939, -0.04393044859170914, 0.08115395158529282, 0.5964725613594055, 0.37246498465538025, 0.3285095691680908, -0.1721777617931366, -0.3361014425754547, 0.3610696792602539, 0.3311145603656769, 0.5566172003746033, -0.22828321158885956, -0.0867612361907959, -0.6196667551994324, -0.1483401358127594, 0.376668244600296, -0.1763186752796173, 0.24207860231399536, -0.07200340926647186, 0.1224820464849472, -0.4337865710258484, 0.03220614418387413, -1.1305431127548218, -0.07064010947942734, -0.6162609457969666, 0.4558230936527252, 0.29383236169815063, 0.1763850450515747, 0.5748863220214844, -0.35865673422813416, 0.6604412198066711, 0.3523353040218353, -0.0894094929099083, 0.42922407388687134, -0.41813963651657104, -0.3116370737552643, -0.2300252914428711, -0.19993478059768677, -0.39934125542640686, 0.4622819423675537, -0.09783776849508286, 0.13323435187339783, -0.2155725508928299, -0.688123345375061, 0.1020720899105072, -0.7227644324302673, -0.025941230356693268, -0.517174482345581, 0.7511197328567505, 0.34446272253990173, 0.03997117653489113, 0.4776362180709839, -0.31987738609313965, 0.20541588962078094, 0.07552124559879303, 0.09979020804166794, 0.4809044301509857, 0.276856005191803, 0.10912729054689407, -0.6254886388778687, -0.3628633916378021, -0.04637961834669113, 0.03529144078493118, -0.4271768629550934, 0.9115281105041504, 0.5731430649757385, 0.22757934033870697, 0.0272273737937212, -0.0802074521780014, -0.3597913682460785, 0.02928488329052925, 0.0974213033914566, -0.46934136748313904, 0.12630681693553925, -0.0586824044585228, -0.7210834622383118, -0.32519495487213135, -0.1563282012939453, 0.7134788632392883, 0.21035730838775635, -0.5047646164894104, 0.1837044507265091, -0.5848259329795837, 0.40921875834465027, -0.1780683845281601, -0.035391151905059814, 0.5011040568351746, -0.48650211095809937, -0.528061032295227, -0.2205798178911209, 0.3924703299999237, -0.5742588639259338, -1.0704542398452759, -0.17052201926708221, 0.20853842794895172, 0.45365628600120544, -0.1750585436820984, -0.15550464391708374, 0.436133474111557, -0.7066959142684937, -0.14684705436229706, 0.07197346538305283, 0.16978871822357178, -0.19268882274627686, 0.01301747839897871, -0.9404993653297424, -0.24879451096057892, 0.1714101880788803, -0.3712722361087799, 0.02229394018650055, 0.1689019352197647, -0.12947142124176025, 0.06442924588918686, -0.36387869715690613, -0.07809172570705414, 0.23064003884792328, 0.059330202639102936, -0.22168798744678497, 0.08474583178758621, 0.27009710669517517, -0.774804949760437, 0.4380888044834137, -0.12709234654903412, 0.16082008183002472, 0.4525167942047119, -0.5184439420700073, -0.26814350485801697, -0.10906115919351578, -0.2962309718132019, 0.6557443737983704, -0.32382941246032715, -0.2099769413471222, 0.07725179195404053, -0.45436981320381165, -0.14955325424671173, 0.11998605728149414, -0.12580940127372742, -0.03529691323637962, -0.20006872713565826, -0.5724159479141235, 0.12155080586671829, 0.6633023619651794, 0.00695516262203455, 0.08514183014631271, 0.2618245780467987, -0.47976183891296387, 0.6434900760650635], [0.07647309452295303, 0.6167839169502258, -0.2770604193210602, 0.6871628165245056, 0.29298123717308044, 0.20902951061725616, 0.08845292776823044, -0.09393499046564102, 0.4537583291530609, 0.053051043301820755, -0.7434824705123901, -0.42225679755210876, -0.07024309039115906, 0.1171686053276062, -0.02138843759894371, 0.46072766184806824, -0.737447202205658, 0.054271139204502106, -0.6871315836906433, 0.2871442437171936, -0.03570203855633736, 0.1585976630449295, -0.3265170753002167, 0.48359230160713196, 0.3937349021434784, 0.2205590158700943, -0.048952918499708176, 0.21916545927524567, -0.26718026399612427, 0.3233696520328522, 0.6234451532363892, 0.40465274453163147, -0.2757638096809387, 0.13660290837287903, -0.4887615740299225, 0.2163432091474533, 0.1703120768070221, -0.7067241668701172, -0.4391130208969116, -0.10701644420623779, -0.1137142926454544, -0.4571393132209778, 0.1470201462507248, 0.09504809230566025, -0.07342682778835297, -0.28566232323646545, 0.39637404680252075, 0.6256850957870483, -0.1827690601348877, -0.23137734830379486, 0.18565905094146729, -0.13532239198684692, -0.05268719047307968, 0.2795626223087311, -0.7216687798500061, 0.4982714354991913, 0.027470655739307404, -0.15552978217601776, -0.033727340400218964, -0.014200368896126747, -0.6543325781822205, 0.5650335550308228, 0.015619620680809021, 0.1674390733242035, 0.35965201258659363, -0.3859631419181824, 0.1789555549621582, -0.10115882754325867, 0.3200492560863495, -0.8040164113044739, -0.03745412454009056, -0.22784478962421417, 0.16338004171848297, 0.1776600033044815, -0.2674574553966522, -0.2691764235496521, -0.04182757809758186, -0.3388988971710205, 0.3182399272918701, -0.139547199010849, -1.0987383127212524, -0.14166942238807678, -0.39253267645835876, -0.6165643334388733, -0.46770331263542175, 0.041352514177560806, 0.5021790266036987, 0.1183726042509079, -0.22923673689365387, 0.1723155826330185, -0.1735198199748993, -0.2625342607498169, -0.4363080859184265, -0.6621290445327759, -0.14737731218338013, 0.05973860248923302, -0.03652031347155571, -0.157220721244812, -0.3574584126472473, 0.2298954576253891, -0.4978290796279907, 0.2933109700679779, -0.37880241870880127, -0.2843937873840332, -0.5543926954269409, -0.1895121932029724, 0.3686334490776062, 0.194889098405838, 0.36980879306793213, 0.197351336479187, -0.41714799404144287, -0.12502656877040863, -0.2948875427246094, 0.5029100179672241, -0.45234358310699463, 0.3377859890460968, 0.3375048339366913, 0.6915314197540283, -0.15484698116779327, 0.26923248171806335, 0.8623833060264587, -0.2334466129541397, -0.5801906585693359, -0.7105770111083984, 0.2693798243999481, -0.711763858795166, -0.14072337746620178, 0.16528885066509247, 0.06998977065086365, 0.16080304980278015, 0.08401767164468765, 0.48336583375930786, -0.3599417507648468, -0.25588011741638184, -0.29203781485557556, 0.31378301978111267, 0.3403186798095703, 0.17054714262485504, 0.44731855392456055, -0.44525760412216187, 0.6301515102386475, 0.5757300853729248, 0.27803897857666016, 0.6734566688537598, -0.6261447072029114, -0.19822275638580322, -0.27791857719421387, 0.27269354462623596, -0.39691588282585144, 0.2863062620162964, 0.5180139541625977, 0.26276201009750366, 0.10724780708551407, -0.37338101863861084, -0.3200795650482178, 0.4723115563392639, 0.29456624388694763, -0.014747992157936096, -0.15795496106147766, -0.7656834125518799, -0.4047441780567169, 0.7224485278129578, -0.4839667081832886, 0.07161664217710495, 0.380778044462204, -0.47431617975234985, 0.06981399655342102, 0.3544987440109253, 0.004724299535155296, 1.084154486656189, -0.6306712627410889, 0.4001617729663849, -0.06531291455030441, 0.29175838828086853, 0.1667984277009964, -0.27710700035095215, 0.08655250072479248, -0.7022207379341125, 0.22800612449645996, 0.11269330978393555, 0.24139085412025452, 0.3999311327934265, 0.1389472335577011, 0.05597253888845444, -0.33301252126693726, -0.2691941559314728, 0.448543518781662, 0.5428837537765503, -0.08999728411436081, 0.017387405037879944, -0.34191209077835083, 0.44326043128967285, 0.25150391459465027, 0.7337112426757812, -0.33197492361068726, -0.14287355542182922, 0.08747833967208862, 0.24435007572174072, -0.08151470124721527, -0.3299482762813568, 0.3331407308578491, 0.27256354689598083, -0.3463190495967865, 0.5123092532157898, 0.44229352474212646, 0.05075930431485176, 0.030085163190960884, 0.20941415429115295, -0.32569316029548645, 0.01135083194822073, -0.8135244846343994, 0.3312690854072571, -0.5901889801025391, 0.5682392716407776, -0.12477366626262665, -0.08000259846448898, -0.2372611165046692, -0.10886846482753754, 0.5361544489860535, -0.9403032660484314, 0.48264753818511963, 0.1277608722448349, -0.45621129870414734, -0.40642988681793213, 0.6336169838905334, -0.35736802220344543, -0.43592551350593567, 0.4298644959926605, 0.1279609650373459, -0.3545025587081909, 0.08187654614448547, -0.38769808411598206, 0.4160713851451874, 0.40116050839424133, 0.20107944309711456, 0.1366950273513794, 0.6656665205955505, -0.0001185571018140763, -0.4467064440250397, 0.16988517343997955, 0.7884516716003418, -0.3835430443286896, -0.13662008941173553, 0.15740180015563965, -0.02037411741912365, -0.3712758421897888, 0.4240224063396454, 0.8768929839134216, 0.07413072139024734, -0.34170567989349365, -0.5854520201683044, 0.09750575572252274, 0.4172264039516449, 0.17959652841091156, -0.0009085664642043412, -0.22272375226020813], [-0.41279906034469604, 0.31550633907318115, 0.3453732132911682, -0.5842309594154358, 0.6009026765823364, 0.216978520154953, 0.5289970636367798, -0.5072765946388245, -0.5162330269813538, -0.05630510672926903, 0.1900346577167511, 0.6789605617523193, 0.26687273383140564, -0.09172490239143372, -0.38793110847473145, 0.4648965299129486, -0.36462438106536865, 0.6155032515525818, -0.10748729109764099, 0.6011835336685181, 0.2566119134426117, -0.051779426634311676, -0.19631338119506836, -0.12885107100009918, 0.1618884950876236, 0.029162414371967316, -0.2244396209716797, -0.06260278820991516, 0.029699325561523438, -0.804585874080658, 0.173171266913414, -0.3702998161315918, -0.4359186887741089, -0.6377562284469604, -0.6780276298522949, -0.5123109817504883, -0.2679847180843353, 0.7382625341415405, -0.19876383244991302, 0.0671832263469696, 0.15136773884296417, 0.049537982791662216, -0.029270876199007034, -0.4517785906791687, 0.5483990907669067, 0.683056116104126, -0.6359851956367493, -0.3870464265346527, -0.10575836896896362, -0.3645610213279724, 0.19123700261116028, -0.2752610146999359, 0.818314254283905, 0.4499850869178772, 0.08034542948007584, 0.38816431164741516, 0.4179910719394684, -0.21315211057662964, -0.30850112438201904, 0.02953530102968216, 0.3256678581237793, 0.05255988985300064, -0.5960486531257629, -0.30343911051750183, -0.02795911394059658, -0.028598910197615623, 0.7455508708953857, -0.5238541960716248, 0.191094771027565, 0.5628318786621094, 0.8585273027420044, -0.15284785628318787, 0.18574286997318268, 0.21534916758537292, 0.07388515025377274, -0.03735997527837753, 0.16478320956230164, -0.9570990800857544, 0.25779804587364197, 0.04769076406955719, -0.08408761024475098, 0.7736411690711975, -0.2551010847091675, -0.15234839916229248, 0.7527363896369934, -0.31448960304260254, -0.2079240381717682, -0.05557038635015488, 0.31776776909828186, 0.07854196429252625, -0.48856645822525024, -0.20114080607891083, -0.22955839335918427, -0.029186811298131943, 0.16095377504825592, 0.15806691348552704, -0.6712693572044373, 0.4021318852901459, 0.09546205401420593, 0.5233039259910583, 0.16789118945598602, 0.4162609577178955, 0.17633755505084991, 0.5088254809379578, 0.19739218056201935, -0.037008482962846756, 0.8588995933532715, 0.3360244333744049, 0.2168550044298172, -0.48239773511886597, -0.48693451285362244, 0.11063605546951294, 0.055001843720674515, -0.23211650550365448, 0.05328645184636116, 0.6004445552825928, 0.2628374397754669, -0.4312606751918793, -0.04214637354016304, -0.30424872040748596, -0.14653679728507996, -0.15633203089237213, -0.18053306639194489, -0.47439658641815186, -0.048248935490846634, -0.21188977360725403, -1.1072275638580322, 0.7759504914283752, 0.4115162491798401, -0.14222830533981323, 0.00711293239146471, -0.4428437054157257, 0.640923023223877, 0.7171077132225037, 0.05922466143965721, 0.3868582248687744, 0.06625217199325562, -0.5052347183227539, -0.15565460920333862, 0.04986408352851868, -0.17180289328098297, -0.08264317363500595, -0.034545786678791046, -0.030569199472665787, 0.01975185237824917, -0.40087103843688965, -0.27100664377212524, -0.4855272173881531, 0.369579553604126, -0.7958597540855408, 0.43601617217063904, 0.52399080991745, -0.11421352624893188, -0.9838933348655701, -0.1365625560283661, -0.024259332567453384, -0.38197022676467896, -0.19473424553871155, 0.5783594250679016, 0.2513188421726227, -0.3494523763656616, -0.6038357019424438, -0.12360092997550964, -0.08067908138036728, 0.18754565715789795, -0.20233069360256195, 0.19332866370677948, 0.7314195036888123, 0.3082304000854492, -0.018175747245550156, -0.06922437250614166, -0.13480977714061737, 0.44624030590057373, -0.2371021956205368, 0.01709257811307907, 0.019350988790392876, -0.189656600356102, -0.5187432169914246, 0.12207289040088654, -0.02305733412504196, 0.1890731304883957, -0.2016819566488266, 0.46142709255218506, -0.33138933777809143, 0.6470903754234314, -0.6605445146560669, 0.16432763636112213, 0.17969590425491333, -0.3006923198699951, 0.16040582954883575, 0.483612596988678, -0.8378787636756897, 0.19001968204975128, -0.9423677921295166, -0.36498698592185974, 0.6157670021057129, -0.2198929339647293, -0.4436849355697632, -0.07481343299150467, 0.7815951108932495, -0.6923108100891113, -0.3973577916622162, 0.5659759640693665, 0.702145516872406, -0.03909332677721977, -0.4683178961277008, 0.7921543717384338, 0.6026425957679749, 0.25661784410476685, -0.30705922842025757, -0.018531348556280136, -0.060610413551330566, 0.12505003809928894, 0.5484269857406616, 0.33238840103149414, -0.4072098731994629, 0.5202667713165283, 0.11835282295942307, 0.2596864700317383, 0.5543003678321838, -0.42013785243034363, -0.013540796004235744, -0.20087094604969025, -0.5925951600074768, 0.13104405999183655, 0.9492791295051575, -0.6954840421676636, -0.012200924567878246, 0.2421024739742279, 0.04651918634772301, -0.042758386582136154, -0.4910576343536377, 0.08798512071371078, -0.2860299050807953, -0.8277125954627991, 0.451513409614563, 0.36223578453063965, 0.019526014104485512, 0.08658209443092346, 0.4060540497303009, 0.08479242026805878, 0.34168651700019836, -0.11243770271539688, 0.4958832561969757, 0.1212456077337265, 0.07334473729133606, -0.48003795742988586, 0.10845911502838135, -0.31444939970970154, -0.24124819040298462, -0.3081830143928528, -0.4029989242553711, 0.8030881285667419, 0.5031988620758057, 0.7258306741714478, -0.46221086382865906]], "layers.0.bias": [0.0, 0.0, 0.0, 0.0, 0.0, 0.0, 0.0, 0.0, 0.0, 0.0, 0.0, 0.0, 0.0, 0.0, 0.0, 0.0, 0.0, 0.0, 0.0, 0.0, 0.0, 0.0, 0.0, 0.0, 0.0, 0.0, 0.0, 0.0, 0.0, 0.0, 0.0, 0.0, 0.0, 0.0, 0.0, 0.0, 0.0, 0.0, 0.0, 0.0, 0.0, 0.0, 0.0, 0.0, 0.0, 0.0, 0.0, 0.0, 0.0, 0.0, 0.0, 0.0, 0.0, 0.0, 0.0, 0.0, 0.0, 0.0, 0.0, 0.0, 0.0, 0.0, 0.0, 0.0, 0.0, 0.0, 0.0, 0.0, 0.0, 0.0, 0.0, 0.0, 0.0, 0.0, 0.0, 0.0, 0.0, 0.0, 0.0, 0.0, 0.0, 0.0, 0.0, 0.0, 0.0, 0.0, 0.0, 0.0, 0.0, 0.0, 0.0, 0.0, 0.0, 0.0, 0.0, 0.0, 0.0, 0.0, 0.0, 0.0, 0.0, 0.0, 0.0, 0.0, 0.0, 0.0, 0.0, 0.0, 0.0, 0.0, 0.0, 0.0, 0.0, 0.0, 0.0, 0.0, 0.0, 0.0, 0.0, 0.0, 0.0, 0.0, 0.0, 0.0, 0.0, 0.0, 0.0, 0.0, 0.0, 0.0, 0.0, 0.0, 0.0, 0.0, 0.0, 0.0, 0.0, 0.0, 0.0, 0.0, 0.0, 0.0, 0.0, 0.0, 0.0, 0.0, 0.0, 0.0, 0.0, 0.0, 0.0, 0.0, 0.0, 0.0, 0.0, 0.0, 0.0, 0.0, 0.0, 0.0, 0.0, 0.0, 0.0, 0.0, 0.0, 0.0, 0.0, 0.0, 0.0, 0.0, 0.0, 0.0, 0.0, 0.0, 0.0, 0.0, 0.0, 0.0, 0.0, 0.0, 0.0, 0.0, 0.0, 0.0, 0.0, 0.0, 0.0, 0.0, 0.0, 0.0, 0.0, 0.0, 0.0, 0.0, 0.0, 0.0, 0.0, 0.0, 0.0, 0.0, 0.0, 0.0, 0.0, 0.0, 0.0, 0.0, 0.0, 0.0, 0.0, 0.0, 0.0, 0.0, 0.0, 0.0, 0.0, 0.0, 0.0, 0.0, 0.0, 0.0, 0.0, 0.0, 0.0, 0.0, 0.0, 0.0, 0.0, 0.0, 0.0, 0.0, 0.0, 0.0, 0.0, 0.0, 0.0, 0.0, 0.0, 0.0, 0.0, 0.0, 0.0, 0.0, 0.0, 0.0, 0.0, 0.0, 0.0, 0.0, 0.0, 0.0, 0.0, 0.0, 0.0, 0.0, 0.0, 0.0], "layers.1.weight": [1.0, 1.0, 1.0, 1.0, 1.0, 1.0, 1.0, 1.0, 1.0, 1.0, 1.0, 1.0, 1.0, 1.0, 1.0, 1.0, 1.0, 1.0, 1.0, 1.0, 1.0, 1.0, 1.0, 1.0, 1.0, 1.0, 1.0, 1.0, 1.0, 1.0, 1.0, 1.0, 1.0, 1.0, 1.0, 1.0, 1.0, 1.0, 1.0, 1.0, 1.0, 1.0, 1.0, 1.0, 1.0, 1.0, 1.0, 1.0, 1.0, 1.0, 1.0, 1.0, 1.0, 1.0, 1.0, 1.0, 1.0, 1.0, 1.0, 1.0, 1.0, 1.0, 1.0, 1.0, 1.0, 1.0, 1.0, 1.0, 1.0, 1.0, 1.0, 1.0, 1.0, 1.0, 1.0, 1.0, 1.0, 1.0, 1.0, 1.0, 1.0, 1.0, 1.0, 1.0, 1.0, 1.0, 1.0, 1.0, 1.0, 1.0, 1.0, 1.0, 1.0, 1.0, 1.0, 1.0, 1.0, 1.0, 1.0, 1.0, 1.0, 1.0, 1.0, 1.0, 1.0, 1.0, 1.0, 1.0, 1.0, 1.0, 1.0, 1.0, 1.0, 1.0, 1.0, 1.0, 1.0, 1.0, 1.0, 1.0, 1.0, 1.0, 1.0, 1.0, 1.0, 1.0, 1.0, 1.0, 1.0, 1.0, 1.0, 1.0, 1.0, 1.0, 1.0, 1.0, 1.0, 1.0, 1.0, 1.0, 1.0, 1.0, 1.0, 1.0, 1.0, 1.0, 1.0, 1.0, 1.0, 1.0, 1.0, 1.0, 1.0, 1.0, 1.0, 1.0, 1.0, 1.0, 1.0, 1.0, 1.0, 1.0, 1.0, 1.0, 1.0, 1.0, 1.0, 1.0, 1.0, 1.0, 1.0, 1.0, 1.0, 1.0, 1.0, 1.0, 1.0, 1.0, 1.0, 1.0, 1.0, 1.0, 1.0, 1.0, 1.0, 1.0, 1.0, 1.0, 1.0, 1.0, 1.0, 1.0, 1.0, 1.0, 1.0, 1.0, 1.0, 1.0, 1.0, 1.0, 1.0, 1.0, 1.0, 1.0, 1.0, 1.0, 1.0, 1.0, 1.0, 1.0, 1.0, 1.0, 1.0, 1.0, 1.0, 1.0, 1.0, 1.0, 1.0, 1.0, 1.0, 1.0, 1.0, 1.0, 1.0, 1.0, 1.0, 1.0, 1.0, 1.0, 1.0, 1.0, 1.0, 1.0, 1.0, 1.0, 1.0, 1.0, 1.0, 1.0, 1.0, 1.0, 1.0, 1.0, 1.0, 1.0, 1.0, 1.0, 1.0, 1.0, 1.0, 1.0, 1.0, 1.0, 1.0, 1.0], "layers.1.bias": [0.0, 0.0, 0.0, 0.0, 0.0, 0.0, 0.0, 0.0, 0.0, 0.0, 0.0, 0.0, 0.0, 0.0, 0.0, 0.0, 0.0, 0.0, 0.0, 0.0, 0.0, 0.0, 0.0, 0.0, 0.0, 0.0, 0.0, 0.0, 0.0, 0.0, 0.0, 0.0, 0.0, 0.0, 0.0, 0.0, 0.0, 0.0, 0.0, 0.0, 0.0, 0.0, 0.0, 0.0, 0.0, 0.0, 0.0, 0.0, 0.0, 0.0, 0.0, 0.0, 0.0, 0.0, 0.0, 0.0, 0.0, 0.0, 0.0, 0.0, 0.0, 0.0, 0.0, 0.0, 0.0, 0.0, 0.0, 0.0, 0.0, 0.0, 0.0, 0.0, 0.0, 0.0, 0.0, 0.0, 0.0, 0.0, 0.0, 0.0, 0.0, 0.0, 0.0, 0.0, 0.0, 0.0, 0.0, 0.0, 0.0, 0.0, 0.0, 0.0, 0.0, 0.0, 0.0, 0.0, 0.0, 0.0, 0.0, 0.0, 0.0, 0.0, 0.0, 0.0, 0.0, 0.0, 0.0, 0.0, 0.0, 0.0, 0.0, 0.0, 0.0, 0.0, 0.0, 0.0, 0.0, 0.0, 0.0, 0.0, 0.0, 0.0, 0.0, 0.0, 0.0, 0.0, 0.0, 0.0, 0.0, 0.0, 0.0, 0.0, 0.0, 0.0, 0.0, 0.0, 0.0, 0.0, 0.0, 0.0, 0.0, 0.0, 0.0, 0.0, 0.0, 0.0, 0.0, 0.0, 0.0, 0.0, 0.0, 0.0, 0.0, 0.0, 0.0, 0.0, 0.0, 0.0, 0.0, 0.0, 0.0, 0.0, 0.0, 0.0, 0.0, 0.0, 0.0, 0.0, 0.0, 0.0, 0.0, 0.0, 0.0, 0.0, 0.0, 0.0, 0.0, 0.0, 0.0, 0.0, 0.0, 0.0, 0.0, 0.0, 0.0, 0.0, 0.0, 0.0, 0.0, 0.0, 0.0, 0.0, 0.0, 0.0, 0.0, 0.0, 0.0, 0.0, 0.0, 0.0, 0.0, 0.0, 0.0, 0.0, 0.0, 0.0, 0.0, 0.0, 0.0, 0.0, 0.0, 0.0, 0.0, 0.0, 0.0, 0.0, 0.0, 0.0, 0.0, 0.0, 0.0, 0.0, 0.0, 0.0, 0.0, 0.0, 0.0, 0.0, 0.0, 0.0, 0.0, 0.0, 0.0, 0.0, 0.0, 0.0, 0.0, 0.0, 0.0, 0.0, 0.0, 0.0, 0.0, 0.0, 0.0, 0.0, 0.0, 0.0, 0.0, 0.0, 0.0, 0.0, 0.0, 0.0, 0.0, 0.0], "layers.4.weight": [[0.006298001389950514, -0.11433099955320358, -0.06149132177233696, -0.08115172386169434, 0.10956478118896484, -0.03502208739519119, 0.0944322869181633, 0.053397245705127716, 0.20361481606960297, -0.1307656317949295, 0.11130154877901077, 0.10133201628923416, -0.0860353484749794, 0.08901885151863098, 0.029711298644542694, -0.020106250420212746, -0.07282629609107971, -0.06356089562177658, 0.18117950856685638, 6.03532389504835e-05, 0.06913118064403534, -0.06990628689527512, -0.06892991065979004, 0.09563484787940979, -0.11928681284189224, -0.0367000587284565, 0.0030076266266405582, 0.009844040498137474, -0.01582975871860981, 0.03498585522174835, 0.06124037504196167, 0.0649333968758583, -0.08713357150554657, -0.025116000324487686, 0.10560311377048492, 0.079076386988163, -0.12134477496147156, 0.03106672689318657, -0.17485205829143524, 0.004148498643189669, 0.16774049401283264, -0.08378267288208008, -0.07374443858861923, 0.06753133237361908, -0.13636568188667297, -0.055928170680999756, 0.05271844565868378, -0.05606347694993019, -0.02085699699819088, 0.06577734649181366, 0.03725976124405861, 0.023583637550473213, -0.02997445873916149, 0.032709091901779175, -0.010936527512967587, 0.04046468064188957, -0.04392300173640251, -0.01613697037100792, -0.08750073611736298, -0.0030942647717893124, -0.07168302685022354, -0.09846872836351395, 0.02286263182759285, 0.01880371756851673, 0.069196917116642, -0.03810647502541542, 0.036067117005586624, 0.04868408665060997, 0.03931282088160515, -0.07297816127538681, 0.013201991096138954, 0.03218575939536095, 0.0006344928406178951, -0.18442031741142273, 0.014185412786900997, 0.1955619603395462, -0.03182327747344971, -0.06435353308916092, 0.032999660819768906, 0.027610594406723976, 0.10542389005422592, -0.11118088662624359, 0.06464549154043198, 0.052186429500579834, -0.01256409753113985, 0.029936011880636215, 0.0909920483827591, 0.07710251212120056, -0.10102958977222443, 0.07249242812395096, -0.0057177189737558365, 0.006441221106797457, 0.006469761021435261, -0.013279729522764683, 0.10533306002616882, -0.007399692200124264, -0.09895483404397964, -0.03478345274925232, 0.015794530510902405, 0.10864826291799545, 0.053306542336940765, -0.07517740875482559, 0.21966183185577393, 0.023403052240610123, 0.11272968351840973, -0.01340978778898716, 0.047142744064331055, 0.07419923692941666, 0.10767421871423721, 0.09345903992652893, 0.07709205150604248, -0.027849996462464333, -0.05053568631410599, 0.02939862757921219, 0.08247765153646469, -0.019685914739966393, 0.09414879232645035, 0.12839439511299133, -0.08099209517240524, -0.07397403568029404, -0.012407519854605198, 0.027189375832676888, -0.046365611255168915, 0.1195189580321312, 0.037482570856809616, 0.0034866593778133392, -0.12691767513751984, -0.11630278825759888], [0.02483794279396534, -0.18849660456180573, 0.08950534462928772, -0.013978957198560238, 0.2866516411304474, 0.20399290323257446, -0.01603798381984234, -0.00939895212650299, 0.08799780160188675, 0.15054062008857727, -0.1447826772928238, -0.1578947752714157, -0.054980628192424774, 0.05150721222162247, 0.043917834758758545, 0.0945553332567215, -0.10603928565979004, -0.2047201246023178, 0.07583845406770706, -0.07320290058851242, -0.17841081321239471, 0.012821944430470467, 0.07010748982429504, -0.010788428597152233, -0.04046846181154251, -0.014085764065384865, -0.03275519981980324, -0.11915165930986404, -0.0631694421172142, 0.04607506841421127, 0.028432635590434074, 0.014854528941214085, -0.08795952796936035, -0.016042765229940414, -0.19242718815803528, 0.015775257721543312, 0.12629437446594238, -0.13029609620571136, -0.05178917944431305, 0.029089204967021942, 0.11073669046163559, -0.039617832750082016, -0.061186861246824265, -0.1740298569202423, 0.009142725728452206, 0.1804957240819931, 0.02451525628566742, -0.0019692021887749434, 0.02846832387149334, -0.0009804038563743234, -0.07186099886894226, 0.07276835292577744, 0.019954688847064972, 0.0015568062663078308, -0.08621098846197128, 0.11521491408348083, 0.05875197798013687, -0.048871759325265884, 0.0885496437549591, -0.0439794659614563, -0.06911999732255936, -0.06714890152215958, -0.1565418243408203, 0.04167885333299637, -0.16185186803340912, -0.10858011990785599, -0.18345779180526733, -0.007607557810842991, -0.01328657753765583, -0.028876138851046562, -0.0921517163515091, -0.10361180454492569, 0.04104488343000412, -0.048662375658750534, 0.02796238847076893, -0.07824566960334778, 0.016003835946321487, 0.11519458889961243, 0.05181022733449936, -0.03645257651805878, 0.02273339219391346, -0.021271996200084686, 0.0006965164793655276, -0.028780223801732063, -0.014525317586958408, 0.01874658092856407, -0.08780133724212646, -0.08979184925556183, -0.12273098528385162, -0.1414453238248825, -0.1075936034321785, 0.01409462746232748, -0.07891201227903366, 0.04539753496646881, 0.0030682908836752176, -0.1739928275346756, 0.05789221078157425, 0.07166515290737152, -0.08784587681293488, 0.03714003786444664, -0.07570446282625198, 0.008632923476397991, -0.11176692694425583, -0.15848971903324127, -0.03383657708764076, -0.010936196893453598, -0.035150252282619476, -0.10465450584888458, -0.035346418619155884, 0.023802518844604492, -0.003968020901083946, 0.0161309652030468, -0.05923037603497505, 0.10356620699167252, -0.10396001487970352, 0.04309464991092682, 0.10446540266275406, 0.04250667244195938, -0.017900781705975533, -0.04669530317187309, 0.09157807379961014, -0.12577439844608307, -0.08574768155813217, -0.035139475017786026, 0.10939417034387589, 0.03356703370809555, -0.08556396514177322, -0.027427585795521736], [-0.0542990081012249, -0.06273707747459412, 0.0865224301815033, -0.1212461069226265, 0.14219747483730316, 0.0732058510184288, 0.09641946107149124, -0.04091845825314522, -0.013253012672066689, -0.12667392194271088, -0.046374041587114334, 0.04363333806395531, 0.11455687135457993, -0.09785976260900497, -0.03230646625161171, -0.013373088091611862, -0.12337150424718857, 0.0522683821618557, -0.06399230659008026, -0.017270229756832123, -0.039947059005498886, -0.06976832449436188, -0.0006226946134120226, -0.019057374447584152, -0.032867904752492905, -0.06438752263784409, 0.028242258355021477, 0.14616049826145172, 0.01236440148204565, 0.08804523944854736, -0.12287941575050354, 0.013944272883236408, -0.09699457138776779, -0.13054294884204865, -0.06535181403160095, 0.10535001009702682, 0.0839703306555748, 0.021478785201907158, -0.1354728639125824, -0.017348922789096832, 0.02666676603257656, 0.015515357255935669, -0.16296987235546112, -0.07869372516870499, -0.005663727875798941, 0.04740186780691147, -0.19411210715770721, -0.014329870231449604, 0.012643844820559025, 0.07509580254554749, 0.061240535229444504, 0.051492515951395035, -0.07070542126893997, -0.16864515841007233, -0.03474128246307373, 0.08853258192539215, 0.12316514551639557, 0.06280425935983658, 0.03794872760772705, 0.03355572000145912, -0.04915441572666168, -0.01149581465870142, 0.14752629399299622, -0.08331114798784256, 0.14272762835025787, -0.028463536873459816, 0.11715275049209595, -0.1243460550904274, 0.051787104457616806, -0.06512189656496048, -0.12509313225746155, 0.01931586302816868, 0.08922554552555084, -0.07468298077583313, -0.13249553740024567, -0.008118007332086563, -0.0077282642014324665, 0.0484650656580925, 0.08393309265375137, -0.005251609720289707, 0.1640048772096634, 0.01981973834335804, -0.030620066449046135, -0.14244377613067627, -0.023216040804982185, -0.029732685536146164, 0.08487975597381592, 0.040878161787986755, -0.1042424887418747, 0.01522528100758791, 0.05935553088784218, 0.1350601613521576, 0.07844500988721848, 0.06724997609853745, 0.005310901906341314, 0.034322258085012436, 0.1104416772723198, -0.11780199408531189, -0.030886365100741386, -0.06828607618808746, 0.033512718975543976, 0.10873730480670929, -0.05276557058095932, -0.21127505600452423, -0.03643551096320152, 0.08074043691158295, 0.047520220279693604, 0.03784667328000069, -0.024748144671320915, -0.1130514144897461, 0.04554601386189461, -0.07374078780412674, 0.19304870069026947, 0.050426188856363297, -0.05132254585623741, -0.05403933301568031, -0.00821518525481224, -0.021169180050492287, 0.09871508926153183, 0.016477016732096672, -0.0646677240729332, 0.1670929342508316, 0.004358281847089529, 0.06795646995306015, -0.053760137408971786, 0.03209519013762474, 0.027498498558998108, -0.1670229732990265], [0.17812684178352356, 0.11407793313264847, -0.035107437521219254, -0.09742780029773712, 0.03072039596736431, 0.007663066498935223, 0.031436990946531296, 0.01693321019411087, 0.044745802879333496, 0.12792496383190155, 0.05021370202302933, -0.0927773118019104, 0.12043467909097672, 0.14501121640205383, 0.27860507369041443, -0.09930378198623657, 0.021467939019203186, -0.18403325974941254, 0.04889193922281265, -0.04845451936125755, 0.17001019418239594, -0.06846693903207779, -0.1493040919303894, -0.04165422171354294, -0.17461009323596954, 0.06638844311237335, -0.1825292855501175, 0.0025153185706585646, -0.18365435302257538, -0.028310593217611313, 0.14525547623634338, 0.0318770706653595, -0.0763227716088295, -0.002758024726063013, 0.0015924815088510513, 0.041775014251470566, -0.12081435322761536, 0.05237604305148125, -0.2390367090702057, -0.05567445605993271, -0.04315771907567978, 0.05597871169447899, 0.0020003037061542273, -0.12423539906740189, -0.08706191182136536, 0.01756099797785282, -0.006988631561398506, -0.051187824457883835, -0.04250010475516319, 0.061533138155937195, -0.04575799033045769, -0.007786239497363567, 0.19179710745811462, -0.12583695352077484, -0.16368131339550018, 0.06926019489765167, -0.05998414009809494, -0.0281284898519516, -0.06904511898756027, -0.022963305935263634, 0.14129213988780975, 0.07089880853891373, 0.07621051371097565, -0.12517796456813812, -0.10174857825040817, -0.2509414851665497, -0.07153983414173126, 0.08456141501665115, 0.04569204896688461, -0.019579190760850906, -0.001971085323020816, -0.060889456421136856, 0.018098298460245132, 0.06769471615552902, -0.14282555878162384, 0.026485364884138107, 0.08241637796163559, -0.03669003024697304, 0.06193377077579498, 0.24878264963626862, -0.009222687222063541, 0.03476376086473465, -0.06523564457893372, 0.01602048985660076, 0.04068264737725258, 0.017221791669726372, -0.09012918174266815, 0.018239976838231087, 0.12924107909202576, 0.03965417295694351, 0.08502845466136932, -0.020949095487594604, 0.06628244370222092, 0.02468402311205864, -0.08404942601919174, 0.028153546154499054, -0.08765442669391632, -0.055939242243766785, 0.016734415665268898, 0.026272930204868317, -0.10511429607868195, 0.09316006302833557, 0.05055868998169899, -0.062289781868457794, -0.13590458035469055, -0.012807875871658325, -0.039416227489709854, 0.010000297799706459, -0.0320952832698822, -0.17743580043315887, -0.03432534262537956, -0.02701316773891449, 0.05600824952125549, -0.06171271577477455, 0.14837528765201569, -0.16896675527095795, 0.11589192599058151, -0.019827183336019516, 0.07597728818655014, 0.00705352146178484, 0.10072343051433563, -0.03423828259110451, -0.0971052423119545, 0.12555602192878723, -0.010030366480350494, 0.019583187997341156, 0.10913768410682678, -0.09121281653642654], [0.052634455263614655, -0.05213982239365578, -0.011682230979204178, 0.006388618145138025, -0.13260212540626526, -0.06884011626243591, 0.11941909790039062, 0.07832897454500198, -0.00553660886362195, 0.021489281207323074, -0.02600760944187641, 0.11990616470575333, -0.017708832398056984, 0.02049214020371437, 0.10129570960998535, -0.0687105804681778, 0.13777880370616913, -0.1352749615907669, 0.14404137432575226, -0.032940179109573364, -0.021451741456985474, -0.16705487668514252, -0.04019855335354805, -0.09190677851438522, -0.05370885506272316, -0.012136689387261868, 0.08465761691331863, 0.018349716439843178, 0.027195030823349953, -0.09683115035295486, -0.0778483971953392, 0.15898633003234863, -0.06498320400714874, 0.14638951420783997, -0.021483777090907097, 0.00020222688908688724, 0.09460780769586563, 0.1124204695224762, -0.009794538840651512, -0.03431616351008415, -0.004942716099321842, 0.029871506616473198, 0.07878085970878601, 0.0003738702507689595, 0.054702337831258774, 0.14481191337108612, 0.03370332717895508, 0.027546480298042297, -0.13425402343273163, -0.23252588510513306, 0.03432789072394371, -0.008381357416510582, -0.04550078883767128, 0.02152523212134838, -0.005338985938578844, 0.09968263655900955, 0.007611197419464588, -0.06601931154727936, 0.08751916140317917, -0.019191857427358627, 0.046539708971977234, -0.04219754412770271, -0.05743712559342384, 0.007439490873366594, 0.0011339025804772973, 0.04241111874580383, -0.023745154961943626, -0.1623128056526184, -0.03825216740369797, 0.07016430050134659, -0.026284581050276756, -0.021777421236038208, 0.08718419075012207, -0.0629301369190216, -0.1363658308982849, -0.014197919517755508, -0.0427953340113163, -0.08540491759777069, -0.015501411631703377, 0.04344337061047554, -0.0008210006053559482, 0.027133550494909286, 0.1602841168642044, -0.03030649572610855, 0.024602776393294334, -0.04500852897763252, -0.07480833679437637, -0.051699019968509674, -0.042316678911447525, 0.03177347034215927, 0.2076309323310852, -0.06328989565372467, -0.036824822425842285, -0.005579338874667883, 0.034984007477760315, 0.02329482138156891, 0.11349910497665405, -0.21446478366851807, -0.21097679436206818, -0.04382985085248947, 0.09698855131864548, -0.13838504254817963, -0.26583966612815857, 0.050485603511333466, 0.021536460146307945, -0.09636171907186508, -0.08711021393537521, -0.08571404218673706, 0.00977003388106823, -0.055358972400426865, 0.04366949200630188, -0.2523157298564911, -0.07573571801185608, -0.09953004866838455, -0.022657528519630432, -0.047557152807712555, 0.07052009552717209, -0.1643436998128891, 0.004020916298031807, 0.04935043305158615, 0.16410599648952484, -0.042582497000694275, 0.02867835946381092, -0.15944045782089233, -0.21142105758190155, 0.07466821372509003, -0.0004914651508443058, 0.10416679084300995], [-0.12139280885457993, 0.04595329239964485, 0.1651817262172699, 0.037097085267305374, 0.024446582421660423, 0.000756257853936404, -0.13884761929512024, 0.119816854596138, -0.05399269610643387, 0.04459043964743614, -0.1381540149450302, -0.10425049066543579, 0.12684500217437744, -0.030697476118803024, 0.1284526139497757, -0.006914678495377302, -0.1628022938966751, 0.07884838432073593, -0.052139606326818466, 0.0617559514939785, 0.002228346886113286, -0.13639366626739502, 0.014521743170917034, 0.19412054121494293, 0.043574258685112, -0.005083899013698101, 0.09504782408475876, 0.01862063817679882, 0.018520385026931763, -0.09648694843053818, 0.020669439807534218, 0.09152112901210785, -0.07389815151691437, 0.12590883672237396, -0.008105743676424026, -0.07846847921609879, 0.08817905187606812, -0.025349268689751625, 0.06713226437568665, -0.025788063183426857, -0.005287934094667435, 0.04362497106194496, 0.0257119107991457, -0.17638175189495087, -0.0991048812866211, 0.08214901387691498, -0.011679334565997124, -0.04629174619913101, -0.12008211016654968, -0.09543611109256744, -0.1787034422159195, -0.008952035568654537, -0.05289490893483162, -0.08543510735034943, -0.006021317094564438, 0.03217076137661934, 0.18501430749893188, -0.13363288342952728, 0.10247577726840973, 0.08601083606481552, -0.06886272132396698, 0.01796369068324566, -0.04044944792985916, 0.016412707045674324, 0.13338959217071533, 0.05352853238582611, 0.0449550524353981, -0.03803433105349541, -0.13117331266403198, -0.018426161259412766, 0.10665009915828705, -0.1349838376045227, -0.0932576060295105, 0.011160596273839474, -0.0870320126414299, -0.07004983723163605, -0.037441179156303406, -0.12070466578006744, -0.08610101789236069, 0.062174830585718155, -0.1155562549829483, -0.14123328030109406, -0.055686868727207184, 0.06469633430242538, -0.017405593767762184, -0.04106355458498001, 0.003920800983905792, -0.15430019795894623, 0.04372621700167656, 0.033891189843416214, -0.0361781008541584, 0.0889120027422905, -0.09965752065181732, 0.09969401359558105, 0.01365543995052576, -0.02974732778966427, -0.001756597775965929, -0.009480955079197884, 0.10785879194736481, -0.09516588598489761, -0.0673978179693222, 0.09159710258245468, -0.05263834819197655, 0.0795966312289238, 0.15021033585071564, -0.035513997077941895, 0.060224488377571106, -0.10197295248508453, 0.06670963019132614, 0.01762675680220127, 0.04181107133626938, -0.057061050087213516, -0.14682041108608246, 0.04448162019252777, -0.1823807954788208, -0.02805008552968502, 0.08318950980901718, 0.01696152426302433, 0.17221078276634216, 0.09060770273208618, -0.05779699981212616, 0.002414184622466564, -0.004187018144875765, -0.13984599709510803, -0.08312030881643295, -0.04956473037600517, -0.1799781620502472, 0.00419786898419261], [-0.022015048190951347, -0.14786432683467865, 0.03572770580649376, 0.0632748082280159, 0.020067201927304268, -0.02864385023713112, 0.05227659270167351, 0.06012355536222458, 0.02717089280486107, -0.07288611680269241, 0.02444828487932682, 0.10566656291484833, -0.05273505672812462, 0.18543338775634766, -0.04645964875817299, 0.0028644022531807423, -0.05943989008665085, 0.019734540954232216, -0.15399210155010223, -0.048263732343912125, -0.09653078764677048, 0.011962332762777805, 0.08789756149053574, 0.057099420577287674, -0.20962704718112946, 0.18049515783786774, 0.026099305599927902, -0.06863347440958023, 0.013888277113437653, 0.015573127195239067, -0.05894165486097336, 0.01749352738261223, -0.05369347333908081, -0.035740889608860016, -0.060659077018499374, -0.1266314536333084, 0.012890244834125042, 0.051733650267124176, 0.045509710907936096, 0.07247183471918106, 0.02866789512336254, -0.04708672687411308, 0.07421649992465973, -0.11998873203992844, -0.07960885763168335, -0.08522405475378036, 0.09546437114477158, 0.08333151787519455, 0.04307210445404053, 0.09474611282348633, -0.0777183547616005, 0.030811747536063194, -0.011063961312174797, 0.07485450804233551, -0.010184479877352715, -0.03402446582913399, 0.047810010612010956, 0.07744314521551132, -0.059073928743600845, -0.005398377776145935, -0.0935538187623024, -0.2207994908094406, 0.017718296498060226, 0.053820136934518814, 0.023163652047514915, -0.17231853306293488, -0.031011002138257027, -0.19607609510421753, 0.12106561660766602, -0.09599456936120987, 0.11096305400133133, 0.08360385149717331, -0.07960169017314911, -0.10012499243021011, 0.030968643724918365, -0.07462840527296066, 0.009058448486030102, -0.04267633333802223, -0.1574336439371109, -0.19714738428592682, 0.0200362466275692, -0.049635160714387894, -0.04888669401407242, 0.061506256461143494, 0.10371862351894379, -0.02408977784216404, -0.03010495752096176, 0.04420681670308113, -0.11993729323148727, 0.019724130630493164, 0.04878028854727745, 0.06012442335486412, -0.17118637263774872, -0.06729493290185928, -0.0776282399892807, 0.008828843012452126, 0.04249221831560135, 0.1322917640209198, -0.04374917969107628, -0.04397961124777794, 0.10161761194467545, 0.02621394582092762, 0.11204562336206436, 0.025520190596580505, -0.10227562487125397, -0.11783301085233688, -0.1371356099843979, 0.05851766839623451, 0.10505811125040054, 0.1634620577096939, 0.07452068477869034, 0.10278137773275375, -0.051266685128211975, -0.10221368074417114, 0.07513710856437683, 0.03691811114549637, 0.009496830403804779, 0.03423912450671196, 0.02856583148241043, 0.11347445100545883, 0.11446163803339005, 0.048102736473083496, 0.0747591182589531, 0.04543713852763176, -0.040762029588222504, 0.06687150150537491, -0.123257115483284, 0.09315173327922821], [-0.10558190941810608, 0.02526167966425419, -0.07470176368951797, 0.0489131361246109, -0.0029985946603119373, -0.14095784723758698, 0.0371849462389946, -0.05108146369457245, 0.07788310199975967, 0.00011717543384293094, 0.034950606524944305, -0.08463793992996216, -0.052090100944042206, -0.04053831100463867, 0.07572251558303833, 0.14826059341430664, -0.07116780430078506, 0.09518083184957504, -0.19177420437335968, -0.10555242747068405, -0.08474484086036682, -0.11954601109027863, -0.13997076451778412, 0.036504290997982025, -0.01892109028995037, 0.03353501483798027, 0.061029739677906036, 0.023477446287870407, 0.05813860148191452, -0.006145843770354986, -0.10491638630628586, 0.09349844604730606, -0.05207064747810364, -0.08269581198692322, -0.015725867822766304, -0.08068184554576874, -0.036895982921123505, 0.03041035681962967, 0.03078935109078884, -0.07935771346092224, -0.043107472360134125, 0.09495852142572403, 0.043875984847545624, 0.18341156840324402, 0.10430958122015, 0.10114217549562454, -0.12267141044139862, 